{"graph": {"_type": "graph-file", "sha256": "a78b01f3e96fffef5e8c327b08ee8a9c0bda158dc475b7874aecb31ed7ff9eec", "size": 1791, "path": "media/graph/graph_summary_a78b01f3e96fffef5e8c.graph.json"}, "parameters/conv1d.weights": {"_type": "histogram", "values": [3, 2, 2, 1, 0, 0, 0, 2, 2, 1, 2, 0, 2, 0, 1, 0, 0, 0, 1, 0, 1, 1, 0, 1, 1, 1, 1, 1, 1, 0, 2, 1, 2, 1, 1, 0, 1, 2, 2, 2, 0, 1, 0, 2, 3, 3, 1, 1, 1, 1, 0, 0, 0, 2, 0, 2, 1, 1, 1, 1, 1, 0, 0, 1], "bins": [-0.27465158700942993, -0.26558244228363037, -0.2565132975578308, -0.24744413793087006, -0.2383749932050705, -0.22930584847927094, -0.22023668885231018, -0.21116754412651062, -0.20209839940071106, -0.1930292546749115, -0.18396010994911194, -0.17489095032215118, -0.16582180559635162, -0.15675266087055206, -0.1476835012435913, -0.13861435651779175, -0.1295452117919922, -0.12047606706619263, -0.11140691488981247, -0.10233776271343231, -0.09326861798763275, -0.08419947326183319, -0.07513032108545303, -0.06606116890907288, -0.056992024183273315, -0.047922875732183456, -0.0388537272810936, -0.02978457883000374, -0.02071543037891388, -0.01164628192782402, -0.0025771334767341614, 0.006492014974355698, 0.015561163425445557, 0.024630311876535416, 0.033699460327625275, 0.042768608778715134, 0.05183775722980499, 0.06090690568089485, 0.06997605413198471, 0.07904520630836487, 0.08811435103416443, 0.09718349575996399, 0.10625264793634415, 0.1153218001127243, 0.12439094483852386, 0.13346008956432343, 0.14252924919128418, 0.15159839391708374, 0.1606675386428833, 0.16973668336868286, 0.17880582809448242, 0.18787498772144318, 0.19694413244724274, 0.2060132771730423, 0.21508243680000305, 0.2241515815258026, 0.23322072625160217, 0.24228987097740173, 0.2513590157032013, 0.26042816042900085, 0.2694973349571228, 0.27856647968292236, 0.2876356244087219, 0.2967047691345215, 0.30577391386032104]}, "parameters/conv1d.bias": {"_type": "histogram", "values": [1, 0, 0, 0, 2, 0, 0, 1, 0, 0, 0, 0, 3, 0, 2, 0, 0, 0, 1, 3, 2, 2, 3, 2, 0, 4, 1, 1, 3, 3, 1, 1, 3, 0, 0, 1, 1, 3, 0, 4, 1, 0, 4, 1, 0, 0, 1, 0, 1, 1, 0, 1, 0, 0, 1, 1, 1, 1, 0, 1, 0, 0, 0, 1], "bins": [-0.0036618446465581656, -0.0035394905135035515, -0.003417136613279581, -0.003294782480224967, -0.0031724285800009966, -0.0030500744469463825, -0.0029277203138917685, -0.002805366413667798, -0.002683012280613184, -0.0025606583803892136, -0.0024383042473345995, -0.0023159501142799854, -0.002193596214056015, -0.002071242081001401, -0.0019488880643621087, -0.0018265340477228165, -0.0017041799146682024, -0.0015818258980289102, -0.001459471881389618, -0.0013371178647503257, -0.0012147638481110334, -0.0010924097150564194, -0.0009700556984171271, -0.0008477016817778349, -0.0007253476651385427, -0.0006029935902915895, -0.0004806395445484668, -0.0003582854988053441, -0.00023593146761413664, -0.00011357742187101394, 8.776616596151143e-06, 0.00013113065506331623, 0.0002534847008064389, 0.0003758387465495616, 0.0004981927922926843, 0.0006205468089319766, 0.0007429008837789297, 0.000865254900418222, 0.0009876089170575142, 0.0011099630501121283, 0.0012323170667514205, 0.0013546710833907127, 0.001477025100030005, 0.0015993791166692972, 0.0017217332497239113, 0.0018440872663632035, 0.0019664412830024958, 0.00208879541605711, 0.0022111493162810802, 0.0023335034493356943, 0.0024558573495596647, 0.002578211482614279, 0.002700565615668893, 0.0028229195158928633, 0.0029452736489474773, 0.0030676277820020914, 0.003189981682226062, 0.003312335815280676, 0.0034346897155046463, 0.0035570438485592604, 0.0036793979816138744, 0.003801751881837845, 0.003924105782061815, 0.004046460147947073, 0.004168814048171043]}, "parameters/dense_1.weights": {"_type": "histogram", "values": [4, 2, 2, 1, 1, 3, 1, 0, 2, 2, 3, 1, 1, 5, 1, 4, 4, 2, 3, 0, 0, 2, 2, 2, 1, 2, 3, 2, 3, 1, 4, 1, 4, 1, 1, 2, 4, 1, 0, 0, 1, 1, 1, 2, 3, 4, 0, 5, 4, 1, 1, 2, 2, 1, 1, 4, 2, 2, 3, 2, 2, 1, 2, 3], "bins": [-0.21437330543994904, -0.2076936513185501, -0.20101398229599, -0.19433432817459106, -0.18765467405319214, -0.1809750199317932, -0.1742953658103943, -0.16761569678783417, -0.16093604266643524, -0.15425638854503632, -0.1475767195224762, -0.14089706540107727, -0.13421741127967834, -0.12753775715827942, -0.1208580955862999, -0.11417843401432037, -0.10749877989292145, -0.10081912577152252, -0.094139464199543, -0.08745980262756348, -0.08078014850616455, -0.07410049438476562, -0.0674208328127861, -0.06074117496609688, -0.054061517119407654, -0.04738185927271843, -0.040702201426029205, -0.03402254357933998, -0.027342885732650757, -0.020663227885961533, -0.013983570039272308, -0.007303912192583084, -0.0006242543458938599, 0.006055403500795364, 0.012735061347484589, 0.019414719194173813, 0.026094377040863037, 0.03277403488755226, 0.039453692734241486, 0.04613335058093071, 0.052813008427619934, 0.05949266627430916, 0.06617232412099838, 0.0728519856929779, 0.07953163981437683, 0.08621129393577576, 0.09289095550775528, 0.0995706170797348, 0.10625027120113373, 0.11292992532253265, 0.11960958689451218, 0.1262892484664917, 0.13296890258789062, 0.13964855670928955, 0.14632821083068848, 0.1530078798532486, 0.15968753397464752, 0.16636718809604645, 0.17304685711860657, 0.1797265112400055, 0.18640616536140442, 0.19308581948280334, 0.19976547360420227, 0.2064451426267624, 0.21312479674816132]}, "parameters/dense_1.bias": {"_type": "histogram", "values": [0, 0, 0, 0, 0, 0, 0, 0, 0, 0, 0, 0, 0, 0, 0, 0, 0, 0, 0, 0, 0, 0, 0, 0, 0, 0, 0, 0, 0, 0, 0, 0, 1, 0, 0, 0, 0, 0, 0, 0, 0, 0, 0, 0, 0, 0, 0, 0, 0, 0, 0, 0, 0, 0, 0, 0, 0, 0, 0, 0, 0, 0, 0, 0], "bins": [-0.498285174369812, -0.482660174369812, -0.467035174369812, -0.451410174369812, -0.435785174369812, -0.420160174369812, -0.404535174369812, -0.388910174369812, -0.373285174369812, -0.357660174369812, -0.342035174369812, -0.326410174369812, -0.310785174369812, -0.295160174369812, -0.279535174369812, -0.263910174369812, -0.24828515946865082, -0.23266015946865082, -0.21703515946865082, -0.20141015946865082, -0.18578515946865082, -0.17016015946865082, -0.15453515946865082, -0.13891015946865082, -0.12328515946865082, -0.10766015946865082, -0.09203515946865082, -0.07641015946865082, -0.060785163193941116, -0.045160163193941116, -0.029535161331295967, -0.013910162262618542, 0.0017148378537967801, 0.017339838668704033, 0.032964836806058884, 0.048589836806058884, 0.06421484053134918, 0.07983984053134918, 0.09546484053134918, 0.11108984053134918, 0.12671484053134918, 0.14233984053134918, 0.15796484053134918, 0.17358984053134918, 0.18921484053134918, 0.20483984053134918, 0.22046484053134918, 0.23608984053134918, 0.251714825630188, 0.267339825630188, 0.282964825630188, 0.298589825630188, 0.314214825630188, 0.329839825630188, 0.345464825630188, 0.361089825630188, 0.376714825630188, 0.392339825630188, 0.407964825630188, 0.423589825630188, 0.439214825630188, 0.454839825630188, 0.470464825630188, 0.486089825630188, 0.501714825630188]}, "_timestamp": 1685415630.095479, "epoch": 0, "loss": 0.0374111570417881, "mae": 0.0374111570417881, "root_mean_squared_error": 0.08999795466661453, "val_loss": 0.0035753792617470026, "val_mae": 0.0035753792617470026, "val_root_mean_squared_error": 0.0058993566781282425, "_runtime": 188.22245597839355, "_step": 0, "best_val_loss": 0.0035753792617470026, "best_epoch": 0, "_wandb": {"runtime": 186}}