{"graph": {"_type": "graph-file", "sha256": "7918f6d7287f84e73c17a0bc44b7543a5a12751cfaa9716e0cf244c29dad058b", "size": 1776, "path": "media/graph/graph_summary_7918f6d7287f84e73c17.graph.json"}, "parameters/conv1d.weights": {"_type": "histogram", "values": [3, 0, 0, 2, 0, 1, 2, 3, 1, 1, 0, 3, 1, 1, 2, 0, 1, 3, 2, 1, 2, 1, 0, 1, 1, 1, 0, 2, 0, 1, 0, 0, 0, 1, 0, 0, 1, 2, 2, 1, 0, 1, 1, 0, 1, 0, 0, 0, 1, 0, 4, 1, 2, 0, 2, 3, 2, 0, 1, 0, 0, 1, 0, 1], "bins": [-0.2856009602546692, -0.2763806879520416, -0.26716044545173645, -0.2579401731491089, -0.24871991574764252, -0.23949965834617615, -0.23027938604354858, -0.22105912864208221, -0.21183887124061584, -0.20261861383914948, -0.1933983564376831, -0.18417808413505554, -0.17495782673358917, -0.1657375693321228, -0.15651729702949524, -0.14729703962802887, -0.1380767822265625, -0.12885652482509613, -0.11963625997304916, -0.1104159951210022, -0.10119573771953583, -0.09197548031806946, -0.08275521546602249, -0.07353495061397552, -0.06431469321250916, -0.05509443208575249, -0.04587417095899582, -0.03665390983223915, -0.027433648705482483, -0.018213387578725815, -0.008993126451969147, 0.00022713467478752136, 0.00944739580154419, 0.018667656928300858, 0.027887918055057526, 0.037108179181814194, 0.04632844030857086, 0.05554870143532753, 0.0647689625620842, 0.07398922741413116, 0.08320948481559753, 0.0924297422170639, 0.10165000706911087, 0.11087027192115784, 0.1200905293226242, 0.12931078672409058, 0.13853105902671814, 0.1477513164281845, 0.15697157382965088, 0.16619183123111725, 0.17541208863258362, 0.18463236093521118, 0.19385261833667755, 0.20307287573814392, 0.21229314804077148, 0.22151340544223785, 0.23073366284370422, 0.2399539202451706, 0.24917417764663696, 0.2583944499492645, 0.2676147222518921, 0.27683496475219727, 0.28605523705482483, 0.29527547955513, 0.30449575185775757]}, "parameters/conv1d.bias": {"_type": "histogram", "values": [1, 0, 1, 0, 0, 0, 2, 0, 0, 0, 0, 1, 0, 0, 0, 1, 0, 0, 0, 0, 1, 0, 2, 2, 2, 1, 1, 0, 4, 1, 1, 2, 1, 1, 2, 2, 3, 2, 1, 2, 2, 2, 1, 2, 1, 0, 3, 3, 3, 0, 3, 1, 0, 0, 1, 0, 1, 0, 0, 0, 2, 1, 0, 1], "bins": [-0.0036019154358655214, -0.00350457476451993, -0.0034072340931743383, -0.003309893421828747, -0.0032125527504831553, -0.0031152120791375637, -0.003017871640622616, -0.0029205309692770243, -0.0028231902979314327, -0.002725849626585841, -0.0026285089552402496, -0.002531168283894658, -0.0024338276125490665, -0.002336486941203475, -0.0022391462698578835, -0.002141805598512292, -0.0020444649271667004, -0.0019471243722364306, -0.001849783700890839, -0.0017524431459605694, -0.0016551024746149778, -0.0015577618032693863, -0.0014604211319237947, -0.0013630804605782032, -0.0012657397892326117, -0.001168399234302342, -0.0010710585629567504, -0.0009737178916111588, -0.0008763772202655673, -0.0007790366071276367, -0.0006816959357820451, -0.0005843553226441145, -0.00048701465129852295, -0.00038967400905676186, -0.00029233336681500077, -0.00019499269546940923, -9.765205322764814e-05, -3.1140370992943645e-07, 9.702924580778927e-05, 0.00019436990260146558, 0.00029171054484322667, 0.00038905118708498776, 0.00048639182932674885, 0.0005837325006723404, 0.0006810731720179319, 0.0007784137851558626, 0.0008757544565014541, 0.0009730950696393847, 0.0010704357409849763, 0.0011677764123305678, 0.0012651170836761594, 0.001362457638606429, 0.0014597983099520206, 0.0015571389812976122, 0.0016544796526432037, 0.0017518203239887953, 0.0018491609953343868, 0.0019465015502646565, 0.00204384233802557, 0.002141182776540518, 0.0022385234478861094, 0.002335864119231701, 0.0024332047905772924, 0.002530545461922884, 0.0026278861332684755]}, "parameters/dense_1.weights": {"_type": "histogram", "values": [2, 1, 2, 2, 2, 1, 1, 1, 3, 4, 1, 3, 4, 1, 2, 1, 2, 1, 1, 6, 1, 3, 4, 0, 0, 4, 3, 1, 1, 1, 2, 2, 3, 5, 3, 2, 1, 1, 1, 5, 1, 4, 2, 0, 3, 1, 0, 1, 2, 3, 0, 2, 4, 2, 0, 3, 3, 0, 1, 1, 4, 4, 1, 2], "bins": [-0.21110564470291138, -0.20447053015232086, -0.19783541560173035, -0.19120028614997864, -0.18456517159938812, -0.1779300570487976, -0.1712949424982071, -0.16465982794761658, -0.15802469849586487, -0.15138958394527435, -0.14475446939468384, -0.13811935484409332, -0.1314842402935028, -0.1248491182923317, -0.11821399629116058, -0.11157888174057007, -0.10494376718997955, -0.09830864518880844, -0.09167353063821793, -0.08503840863704681, -0.0784032940864563, -0.07176817208528519, -0.06513305753469467, -0.05849793925881386, -0.051862820982933044, -0.04522770643234253, -0.038592588156461716, -0.0319574698805809, -0.02532235160470009, -0.018687235191464424, -0.01205211691558361, -0.0054169995710253716, 0.0012181177735328674, 0.007853235118091106, 0.014488352462649345, 0.02112347073853016, 0.027758587151765823, 0.03439370542764664, 0.04102882370352745, 0.047663941979408264, 0.05429905652999878, 0.06093417480587959, 0.0675692930817604, 0.07420440763235092, 0.08083952963352203, 0.08747464418411255, 0.09410976618528366, 0.10074488073587418, 0.10738000273704529, 0.1140151172876358, 0.12065023183822632, 0.12728534638881683, 0.13392047584056854, 0.14055559039115906, 0.14719070494174957, 0.1538258194923401, 0.1604609340429306, 0.1670960634946823, 0.17373117804527283, 0.18036629259586334, 0.18700140714645386, 0.19363652169704437, 0.20027165114879608, 0.2069067656993866, 0.2135418802499771]}, "parameters/dense_1.bias": {"_type": "histogram", "values": [0, 0, 0, 0, 0, 0, 0, 0, 0, 0, 0, 0, 0, 0, 0, 0, 0, 0, 0, 0, 0, 0, 0, 0, 0, 0, 0, 0, 0, 0, 0, 0, 1, 0, 0, 0, 0, 0, 0, 0, 0, 0, 0, 0, 0, 0, 0, 0, 0, 0, 0, 0, 0, 0, 0, 0, 0, 0, 0, 0, 0, 0, 0, 0], "bins": [-0.4986395835876465, -0.4830145835876465, -0.4673895835876465, -0.4517645835876465, -0.4361395835876465, -0.4205145835876465, -0.4048895835876465, -0.3892645835876465, -0.3736395835876465, -0.3580145835876465, -0.3423895835876465, -0.3267645835876465, -0.3111395835876465, -0.2955145835876465, -0.2798895835876465, -0.2642645835876465, -0.24863958358764648, -0.23301458358764648, -0.21738958358764648, -0.20176458358764648, -0.18613958358764648, -0.17051458358764648, -0.15488958358764648, -0.13926458358764648, -0.12363958358764648, -0.10801458358764648, -0.09238958358764648, -0.07676458358764648, -0.061139579862356186, -0.045514579862356186, -0.029889579862356186, -0.01426458079367876, 0.0013604194391518831, 0.016985420137643814, 0.032610420137643814, 0.048235420137643814, 0.06386041641235352, 0.07948541641235352, 0.09511041641235352, 0.11073541641235352, 0.12636041641235352, 0.14198541641235352, 0.15761041641235352, 0.17323541641235352, 0.18886041641235352, 0.20448541641235352, 0.22011041641235352, 0.23573541641235352, 0.2513604164123535, 0.2669854164123535, 0.2826104164123535, 0.2982354164123535, 0.3138604164123535, 0.3294854164123535, 0.3451104164123535, 0.3607354164123535, 0.3763604164123535, 0.3919854164123535, 0.4076104164123535, 0.4232354164123535, 0.4388604164123535, 0.4544854164123535, 0.4701104164123535, 0.4857354164123535, 0.5013604164123535]}, "_timestamp": 1685416493.7219143, "epoch": 0, "loss": 0.036512602120637894, "mae": 0.036512602120637894, "root_mean_squared_error": 0.08672675490379333, "val_loss": 0.006018810905516148, "val_mae": 0.006018810905516148, "val_root_mean_squared_error": 0.018244421109557152, "_runtime": 197.62784838676453, "_step": 0, "best_val_loss": 0.006018810905516148, "best_epoch": 0, "_wandb": {"runtime": 196}}