{"graph": {"_type": "graph-file", "sha256": "b0fe9a6a797ed262c75961d97b44b90c763ac1ab3d1724da4eb75a2ffdbc20fa", "size": 1821, "path": "media/graph/graph_summary_b0fe9a6a797ed262c759.graph.json"}, "parameters/conv1d.weights": {"_type": "histogram", "values": [3, 0, 1, 1, 2, 0, 0, 0, 0, 2, 1, 0, 0, 1, 0, 1, 1, 0, 0, 2, 0, 1, 0, 2, 0, 2, 1, 2, 3, 0, 0, 1, 0, 3, 2, 1, 0, 2, 0, 3, 2, 1, 1, 1, 0, 2, 1, 1, 2, 1, 1, 0, 2, 3, 1, 0, 2, 1, 0, 1, 2, 0, 0, 1], "bins": [-0.30031618475914, -0.2909476161003113, -0.28157901763916016, -0.2722104489803314, -0.2628418803215027, -0.25347328186035156, -0.24410471320152283, -0.2347361296415329, -0.22536754608154297, -0.21599897742271423, -0.2066303938627243, -0.19726181030273438, -0.18789324164390564, -0.1785246580839157, -0.16915607452392578, -0.15978750586509705, -0.15041892230510712, -0.1410503387451172, -0.13168177008628845, -0.12231318652629852, -0.1129446029663086, -0.10357602685689926, -0.09420745074748993, -0.0848388671875, -0.07547029107809067, -0.06610171496868134, -0.056733131408691406, -0.047364555299282074, -0.03799597546458244, -0.028627395629882812, -0.01925881765782833, -0.009890238754451275, -0.0005216598510742188, 0.008846919052302837, 0.018215497955679893, 0.027584075927734375, 0.036952655762434006, 0.046321235597133636, 0.05568981170654297, 0.0650583952665329, 0.07442697137594223, 0.08379554748535156, 0.09316413104534149, 0.10253270715475082, 0.11190128326416016, 0.12126986682415009, 0.13063845038414001, 0.14000701904296875, 0.14937560260295868, 0.1587441861629486, 0.16811275482177734, 0.17748133838176727, 0.1868499219417572, 0.19621849060058594, 0.20558707416057587, 0.2149556577205658, 0.22432422637939453, 0.23369280993938446, 0.2430613934993744, 0.2524299621582031, 0.26179856061935425, 0.271167129278183, 0.2805356979370117, 0.28990429639816284, 0.2992728650569916]}, "parameters/conv1d.bias": {"_type": "histogram", "values": [1, 0, 0, 0, 1, 0, 0, 1, 2, 0, 1, 1, 1, 0, 0, 2, 1, 0, 1, 1, 4, 4, 2, 5, 2, 5, 1, 4, 2, 2, 0, 1, 1, 5, 3, 0, 2, 1, 0, 0, 1, 2, 0, 0, 1, 1, 0, 1, 0, 0, 0, 0, 0, 0, 0, 0, 0, 0, 0, 0, 0, 0, 0, 1], "bins": [-0.005040361545979977, -0.004839235916733742, -0.004638110753148794, -0.004436985123902559, -0.004235859494656324, -0.004034734331071377, -0.003833608701825142, -0.003632483072578907, -0.0034313576761633158, -0.0032302322797477245, -0.0030291066505014896, -0.0028279812540858984, -0.002626855857670307, -0.0024257302284240723, -0.002224604832008481, -0.002023479202762246, -0.001822353806346655, -0.0016212282935157418, -0.0014201027806848288, -0.0012189773842692375, -0.0010178518714383245, -0.0008167263586074114, -0.0006156009039841592, -0.0004144754202570766, -0.000213349936529994, -1.22244528029114e-05, 0.0001889010309241712, 0.0003900265146512538, 0.0005911519983783364, 0.0007922775112092495, 0.0009934029076248407, 0.0011945284204557538, 0.0013956539332866669, 0.00159677944611758, 0.001797904958948493, 0.0019990303553640842, 0.002200155984610319, 0.0024012813810259104, 0.0026024067774415016, 0.0028035324066877365, 0.0030046578031033278, 0.003205783199518919, 0.003406908828765154, 0.003608034225180745, 0.0038091596215963364, 0.004010285250842571, 0.004211410880088806, 0.004412536043673754, 0.004613661672919989, 0.0048147873021662235, 0.005015912465751171, 0.005217038094997406, 0.005418163724243641, 0.0056192888878285885, 0.005820414517074823, 0.006021540146321058, 0.006222665309906006, 0.006423790939152241, 0.006624916568398476, 0.0068260421976447105, 0.007027167361229658, 0.007228292990475893, 0.007429418619722128, 0.0076305437833070755, 0.00783166941255331]}, "parameters/dense_1.weights": {"_type": "histogram", "values": [3, 0, 2, 2, 0, 1, 6, 1, 4, 3, 1, 3, 1, 1, 6, 3, 3, 2, 1, 3, 5, 0, 2, 2, 0, 1, 0, 3, 2, 2, 2, 0, 1, 1, 3, 4, 1, 2, 0, 1, 3, 4, 1, 3, 1, 1, 1, 2, 1, 3, 1, 1, 3, 1, 2, 5, 1, 3, 4, 2, 0, 2, 0, 5], "bins": [-0.20470304787158966, -0.19824928045272827, -0.1917954981327057, -0.1853417307138443, -0.1788879632949829, -0.17243418097496033, -0.16598041355609894, -0.15952663123607635, -0.15307286381721497, -0.14661909639835358, -0.140165314078331, -0.1337115466594696, -0.12725777924060822, -0.12080400437116623, -0.11435022950172424, -0.10789645463228226, -0.10144267976284027, -0.09498891234397888, -0.0885351374745369, -0.08208136260509491, -0.07562759518623352, -0.06917382031679153, -0.06272004544734955, -0.05626627430319786, -0.04981250315904617, -0.04335872828960419, -0.0369049571454525, -0.030451182276010513, -0.023997411131858826, -0.01754363812506199, -0.011089865118265152, -0.004636092111468315, 0.0018176808953285217, 0.008271453902125359, 0.014725226908922195, 0.021178999915719032, 0.02763277292251587, 0.03408654406666756, 0.04054031893610954, 0.04699409008026123, 0.05344786494970322, 0.059901636093854904, 0.06635540723800659, 0.07280918210744858, 0.07926295697689056, 0.08571672439575195, 0.09217049926519394, 0.09862427413463593, 0.10507804155349731, 0.1115318164229393, 0.11798559129238129, 0.12443936616182327, 0.13089314103126526, 0.13734690845012665, 0.14380067586898804, 0.15025445818901062, 0.156708225607872, 0.1631619930267334, 0.16961577534675598, 0.17606954276561737, 0.18252332508563995, 0.18897709250450134, 0.19543085992336273, 0.20188464224338531, 0.2083384096622467]}, "parameters/dense_1.bias": {"_type": "histogram", "values": [0, 0, 0, 0, 0, 0, 0, 0, 0, 0, 0, 0, 0, 0, 0, 0, 0, 0, 0, 0, 0, 0, 0, 0, 0, 0, 0, 0, 0, 0, 0, 0, 1, 0, 0, 0, 0, 0, 0, 0, 0, 0, 0, 0, 0, 0, 0, 0, 0, 0, 0, 0, 0, 0, 0, 0, 0, 0, 0, 0, 0, 0, 0, 0], "bins": [-0.49837976694107056, -0.48275476694107056, -0.46712976694107056, -0.45150476694107056, -0.43587976694107056, -0.42025476694107056, -0.40462976694107056, -0.38900476694107056, -0.37337976694107056, -0.35775476694107056, -0.34212976694107056, -0.32650476694107056, -0.31087976694107056, -0.29525476694107056, -0.27962976694107056, -0.26400476694107056, -0.24837976694107056, -0.23275476694107056, -0.21712976694107056, -0.20150476694107056, -0.18587976694107056, -0.17025476694107056, -0.15462976694107056, -0.13900476694107056, -0.12337976694107056, -0.10775476694107056, -0.09212976694107056, -0.07650476694107056, -0.06087976694107056, -0.04525476694107056, -0.029629766941070557, -0.014004767872393131, 0.0016202324768528342, 0.017245233058929443, 0.03287023305892944, 0.04849523305892944, 0.06412023305892944, 0.07974523305892944, 0.09537023305892944, 0.11099523305892944, 0.12662023305892944, 0.14224523305892944, 0.15787023305892944, 0.17349523305892944, 0.18912023305892944, 0.20474523305892944, 0.22037023305892944, 0.23599523305892944, 0.25162023305892944, 0.26724523305892944, 0.28287023305892944, 0.29849523305892944, 0.31412023305892944, 0.32974523305892944, 0.34537023305892944, 0.36099523305892944, 0.37662023305892944, 0.39224523305892944, 0.40787023305892944, 0.42349523305892944, 0.43912023305892944, 0.45474523305892944, 0.47037023305892944, 0.48599523305892944, 0.5016202330589294]}, "_timestamp": 1685415216.1400716, "epoch": 0, "loss": 0.028981756418943405, "mae": 0.028981756418943405, "root_mean_squared_error": 0.06306307762861252, "val_loss": 0.004236212465912104, "val_mae": 0.004236212465912104, "val_root_mean_squared_error": 0.00724581116810441, "_runtime": 176.93683171272278, "_step": 0, "best_val_loss": 0.004236212465912104, "best_epoch": 0, "_wandb": {"runtime": 176}}