{"graph": {"_type": "graph-file", "sha256": "7918f6d7287f84e73c17a0bc44b7543a5a12751cfaa9716e0cf244c29dad058b", "size": 1776, "path": "media/graph/graph_summary_7918f6d7287f84e73c17.graph.json"}, "parameters/conv1d.weights": {"_type": "histogram", "values": [2, 0, 0, 1, 3, 2, 1, 1, 0, 0, 1, 1, 2, 1, 1, 1, 3, 1, 1, 0, 1, 0, 1, 2, 0, 1, 1, 1, 1, 1, 1, 1, 2, 1, 0, 0, 0, 1, 1, 0, 0, 0, 1, 0, 1, 0, 2, 1, 0, 0, 2, 2, 1, 2, 1, 1, 3, 2, 0, 2, 2, 0, 1, 2], "bins": [-0.2967933416366577, -0.2875397503376007, -0.2782861590385437, -0.2690325677394867, -0.2597789764404297, -0.2505253851413727, -0.24127180874347687, -0.23201821744441986, -0.22276462614536285, -0.21351103484630585, -0.20425744354724884, -0.19500385224819183, -0.18575026094913483, -0.17649666965007782, -0.1672430783510208, -0.1579894870519638, -0.148735910654068, -0.139482319355011, -0.13022872805595398, -0.12097513675689697, -0.11172154545783997, -0.10246795415878296, -0.09321436285972595, -0.08396077156066895, -0.07470718026161194, -0.06545359641313553, -0.05620000511407852, -0.046946413815021515, -0.03769282251596451, -0.0284392349421978, -0.019185643643140793, -0.009932054206728935, -0.0006784647703170776, 0.00857512466609478, 0.017828714102506638, 0.027082305401563644, 0.03633589297533035, 0.04558948427438736, 0.054843075573444366, 0.06409666687250137, 0.07335025072097778, 0.08260384202003479, 0.0918574333190918, 0.1011110246181488, 0.11036461591720581, 0.11961820721626282, 0.12887179851531982, 0.13812538981437683, 0.14737898111343384, 0.15663255751132965, 0.16588614881038666, 0.17513974010944366, 0.18439333140850067, 0.19364692270755768, 0.20290051400661469, 0.2121541053056717, 0.2214076966047287, 0.2306612879037857, 0.2399148792028427, 0.24916845560073853, 0.25842204689979553, 0.26767563819885254, 0.27692922949790955, 0.28618282079696655, 0.29543641209602356]}, "parameters/conv1d.bias": {"_type": "histogram", "values": [1, 0, 0, 0, 0, 0, 0, 0, 0, 0, 1, 1, 0, 1, 0, 0, 0, 0, 1, 1, 1, 0, 0, 0, 1, 1, 1, 0, 0, 2, 0, 3, 3, 2, 4, 2, 3, 5, 3, 2, 3, 3, 4, 4, 1, 1, 2, 0, 1, 2, 1, 0, 1, 0, 1, 0, 0, 0, 0, 0, 0, 0, 0, 1], "bins": [-0.006655553821474314, -0.006472156383097172, -0.0062887584790587425, -0.006105361040681601, -0.005921963136643171, -0.005738565698266029, -0.005555168259888887, -0.005371770355850458, -0.005188372917473316, -0.005004975013434887, -0.004821577575057745, -0.004638180136680603, -0.004454782232642174, -0.004271384794265032, -0.00408798735588789, -0.0039045894518494606, -0.0037211920134723186, -0.003537794342264533, -0.0033543966710567474, -0.003170998999848962, -0.0029876013286411762, -0.0028042038902640343, -0.0026208062190562487, -0.002437408547848463, -0.0022540108766406775, -0.002070613205432892, -0.001887215650640428, -0.0017038180958479643, -0.0015204204246401787, -0.001337022869847715, -0.0011536251986399293, -0.0009702275856398046, -0.0007868299726396799, -0.0006034323596395552, -0.0004200347466394305, -0.00023663710453547537, -5.323949153535068e-05, 0.000130158121464774, 0.00031355576356872916, 0.0004969533765688539, 0.0006803509895689785, 0.0008637486025691032, 0.0010471462737768888, 0.0012305438285693526, 0.0014139414997771382, 0.001597339054569602, 0.0017807367257773876, 0.0019641343969851732, 0.002147532068192959, 0.002330929506570101, 0.0025143271777778864, 0.002697724848985672, 0.0028811225201934576, 0.0030645199585705996, 0.003247917629778385, 0.0034313153009861708, 0.0036147129721939564, 0.003798110643401742, 0.003981508314609528, 0.0041649057529866695, 0.0043483031913638115, 0.004531701095402241, 0.004715098533779383, 0.004898496437817812, 0.005081893876194954]}, "parameters/dense_1.weights": {"_type": "histogram", "values": [2, 2, 1, 1, 0, 1, 2, 2, 2, 3, 2, 2, 3, 3, 1, 2, 1, 4, 2, 0, 2, 1, 3, 0, 0, 0, 1, 3, 1, 1, 5, 1, 3, 3, 3, 4, 1, 1, 0, 2, 0, 7, 1, 2, 1, 2, 1, 7, 4, 1, 1, 3, 3, 3, 1, 3, 2, 2, 4, 4, 0, 3, 1, 1], "bins": [-0.21566849946975708, -0.20894479751586914, -0.20222108066082, -0.19549737870693207, -0.18877366185188293, -0.182049959897995, -0.17532625794410706, -0.16860254108905792, -0.16187883913516998, -0.15515512228012085, -0.1484314203262329, -0.14170771837234497, -0.13498400151729584, -0.1282602995634079, -0.12153659015893936, -0.11481288075447083, -0.10808917880058289, -0.10136546939611435, -0.09464175999164581, -0.08791805058717728, -0.08119434118270874, -0.0744706392288208, -0.06774692982435226, -0.06102322041988373, -0.05429951101541519, -0.047575805336236954, -0.04085209593176842, -0.03412839025259018, -0.027404680848121643, -0.020680973306298256, -0.013957265764474869, -0.007233558222651482, -0.0005098506808280945, 0.006213856860995293, 0.01293756440281868, 0.019661271944642067, 0.026384979486465454, 0.03310868889093399, 0.03983239457011223, 0.046556103974580765, 0.053279809653759, 0.06000351905822754, 0.06672722846269608, 0.07345093786716461, 0.08017463982105255, 0.08689834922552109, 0.09362205862998962, 0.10034576803445816, 0.1070694774389267, 0.11379317939281464, 0.12051688879728317, 0.1272405982017517, 0.13396430015563965, 0.14068801701068878, 0.14741171896457672, 0.15413542091846466, 0.1608591377735138, 0.16758283972740173, 0.17430655658245087, 0.1810302585363388, 0.18775396049022675, 0.19447767734527588, 0.20120137929916382, 0.20792509615421295, 0.2146487981081009]}, "parameters/dense_1.bias": {"_type": "histogram", "values": [0, 0, 0, 0, 0, 0, 0, 0, 0, 0, 0, 0, 0, 0, 0, 0, 0, 0, 0, 0, 0, 0, 0, 0, 0, 0, 0, 0, 0, 0, 0, 0, 1, 0, 0, 0, 0, 0, 0, 0, 0, 0, 0, 0, 0, 0, 0, 0, 0, 0, 0, 0, 0, 0, 0, 0, 0, 0, 0, 0, 0, 0, 0, 0], "bins": [-0.4984675645828247, -0.4828425645828247, -0.4672175645828247, -0.4515925645828247, -0.4359675645828247, -0.4203425645828247, -0.4047175645828247, -0.3890925645828247, -0.3734675645828247, -0.3578425645828247, -0.3422175645828247, -0.3265925645828247, -0.3109675645828247, -0.2953425645828247, -0.2797175645828247, -0.2640925645828247, -0.2484675645828247, -0.2328425645828247, -0.2172175645828247, -0.2015925645828247, -0.1859675645828247, -0.1703425645828247, -0.1547175645828247, -0.1390925645828247, -0.12346756458282471, -0.10784256458282471, -0.09221756458282471, -0.07659256458282471, -0.06096756458282471, -0.04534256458282471, -0.029717566445469856, -0.014092566445469856, 0.0015324337873607874, 0.017157433554530144, 0.03278243541717529, 0.04840743541717529, 0.06403243541717529, 0.07965743541717529, 0.09528243541717529, 0.11090743541717529, 0.1265324354171753, 0.1421574354171753, 0.1577824354171753, 0.1734074354171753, 0.1890324354171753, 0.2046574354171753, 0.2202824354171753, 0.2359074354171753, 0.2515324354171753, 0.2671574354171753, 0.2827824354171753, 0.2984074354171753, 0.3140324354171753, 0.3296574354171753, 0.3452824354171753, 0.3609074354171753, 0.3765324354171753, 0.3921574354171753, 0.4077824354171753, 0.4234074354171753, 0.4390324354171753, 0.4546574354171753, 0.4702824354171753, 0.4859074354171753, 0.5015324354171753]}, "_timestamp": 1685417186.362989, "epoch": 0, "loss": 0.03979680687189102, "mae": 0.03979680687189102, "root_mean_squared_error": 0.09389323741197586, "val_loss": 0.004739557392895222, "val_mae": 0.004739557392895222, "val_root_mean_squared_error": 0.006859704852104187, "_runtime": 188.2850148677826, "_step": 0, "best_val_loss": 0.004739557392895222, "best_epoch": 0, "_wandb": {"runtime": 187}}