{"graph": {"_type": "graph-file", "sha256": "c99a53e4772a96a4e43dbe510889afbf5def48d4a2982dca376f4f4bb2d601aa", "size": 1804, "path": "media/graph/graph_summary_c99a53e4772a96a4e43d.graph.json"}, "parameters/conv1d.weights": {"_type": "histogram", "values": [1, 0, 2, 0, 0, 2, 1, 0, 1, 1, 0, 0, 0, 0, 0, 1, 0, 0, 0, 2, 0, 1, 0, 0, 1, 1, 1, 0, 0, 0, 0, 1, 0, 0, 1, 0, 0, 0, 0, 0, 0, 1, 0, 0, 1, 0, 1, 0, 0, 1, 0, 2, 0, 3, 0, 0, 0, 0, 1, 0, 1, 0, 1, 2], "bins": [-0.4195150136947632, -0.40715181827545166, -0.39478859305381775, -0.3824253976345062, -0.3700622022151947, -0.3576989769935608, -0.34533578157424927, -0.33297258615493774, -0.32060936093330383, -0.3082461655139923, -0.2958829700946808, -0.2835197448730469, -0.27115654945373535, -0.25879335403442383, -0.24643012881278992, -0.2340669333934784, -0.22170372307300568, -0.20934051275253296, -0.19697731733322144, -0.18461410701274872, -0.172250896692276, -0.15988770127296448, -0.14752449095249176, -0.13516128063201904, -0.12279807776212692, -0.1104348748922348, -0.09807166457176208, -0.08570846170186996, -0.07334525883197784, -0.06098204851150513, -0.04861884564161301, -0.03625563904643059, -0.02389243245124817, -0.011529226787388325, 0.0008339788764715195, 0.013197184540331364, 0.025560390204191208, 0.03792359679937363, 0.05028679966926575, 0.06265000998973846, 0.07501321285963058, 0.0873764157295227, 0.09973962604999542, 0.11210282891988754, 0.12446603178977966, 0.13682924211025238, 0.1491924524307251, 0.16155564785003662, 0.17391885817050934, 0.18628206849098206, 0.19864526391029358, 0.2110084742307663, 0.223371684551239, 0.23573487997055054, 0.24809809029102325, 0.26046130061149597, 0.2728244960308075, 0.2851877212524414, 0.29755091667175293, 0.30991411209106445, 0.32227733731269836, 0.3346405327320099, 0.3470037281513214, 0.3593669533729553, 0.37173014879226685]}, "parameters/conv1d.bias": {"_type": "histogram", "values": [1, 0, 0, 2, 0, 0, 0, 2, 0, 0, 0, 0, 0, 0, 0, 0, 1, 16, 0, 1, 1, 2, 1, 0, 0, 0, 0, 0, 0, 0, 0, 1, 0, 0, 0, 0, 1, 0, 0, 0, 0, 1, 0, 0, 0, 0, 0, 0, 0, 0, 0, 0, 0, 0, 0, 0, 0, 0, 0, 0, 0, 0, 0, 1], "bins": [-0.020832523703575134, -0.019645772874355316, -0.018459023907780647, -0.01727227307856083, -0.01608552411198616, -0.014898773282766342, -0.013712022453546524, -0.01252527255564928, -0.011338522657752037, -0.010151772759854794, -0.00896502286195755, -0.007778272032737732, -0.0065915221348404884, -0.005404772236943245, -0.004218021873384714, -0.003031271742656827, -0.0018445216119289398, -0.0006577714812010527, 0.0005289786495268345, 0.0017157287802547216, 0.002902478910982609, 0.004089228808879852, 0.005275979172438383, 0.006462729535996914, 0.007649479433894157, 0.008836229331791401, 0.010022979229688644, 0.011209730058908463, 0.012396479956805706, 0.01358322985470295, 0.014769980683922768, 0.015956729650497437, 0.017143480479717255, 0.018330231308937073, 0.01951698027551174, 0.02070373110473156, 0.02189048007130623, 0.023077230900526047, 0.024263981729745865, 0.025450730696320534, 0.026637481525540352, 0.02782423235476017, 0.02901098132133484, 0.030197732150554657, 0.031384482979774475, 0.03257123380899429, 0.03375798091292381, 0.03494473174214363, 0.03613148257136345, 0.03731823340058327, 0.038504984229803085, 0.039691731333732605, 0.04087848216295242, 0.04206523299217224, 0.04325198382139206, 0.04443873465061188, 0.045625485479831696, 0.046812232583761215, 0.04799898341298103, 0.04918573424220085, 0.05037248507142067, 0.05155923590064049, 0.05274598300457001, 0.053932733833789825, 0.055119484663009644]}, "parameters/dense.weights": {"_type": "histogram", "values": [0, 0, 0, 0, 0, 0, 0, 0, 0, 0, 0, 0, 0, 0, 0, 0, 0, 0, 0, 0, 0, 0, 0, 0, 0, 0, 0, 0, 0, 0, 0, 0, 1, 0, 0, 0, 0, 0, 0, 0, 0, 0, 0, 0, 0, 0, 0, 0, 0, 0, 0, 0, 0, 0, 0, 0, 0, 0, 0, 0, 0, 0, 0, 0], "bins": [-1.5169155597686768, -1.5012905597686768, -1.4856655597686768, -1.4700405597686768, -1.4544155597686768, -1.4387905597686768, -1.4231655597686768, -1.4075405597686768, -1.3919155597686768, -1.3762905597686768, -1.3606655597686768, -1.3450405597686768, -1.3294155597686768, -1.3137905597686768, -1.2981655597686768, -1.2825405597686768, -1.2669155597686768, -1.2512905597686768, -1.2356655597686768, -1.2200405597686768, -1.2044155597686768, -1.1887905597686768, -1.1731655597686768, -1.1575405597686768, -1.1419155597686768, -1.1262905597686768, -1.1106655597686768, -1.0950405597686768, -1.0794155597686768, -1.0637905597686768, -1.0481655597686768, -1.0325405597686768, -1.0169155597686768, -1.0012905597686768, -0.9856655597686768, -0.9700405597686768, -0.9544155597686768, -0.9387905597686768, -0.9231655597686768, -0.9075405597686768, -0.8919155597686768, -0.8762905597686768, -0.8606655597686768, -0.8450405597686768, -0.8294155597686768, -0.8137905597686768, -0.7981655597686768, -0.7825405597686768, -0.7669155597686768, -0.7512905597686768, -0.7356655597686768, -0.7200405597686768, -0.7044155597686768, -0.6887905597686768, -0.6731655597686768, -0.6575405597686768, -0.6419155597686768, -0.6262905597686768, -0.6106655597686768, -0.5950405597686768, -0.5794155597686768, -0.5637905597686768, -0.5481655597686768, -0.5325405597686768, -0.5169155597686768]}, "parameters/dense.bias": {"_type": "histogram", "values": [0, 0, 0, 0, 0, 0, 0, 0, 0, 0, 0, 0, 0, 0, 0, 0, 0, 0, 0, 0, 0, 0, 0, 0, 0, 0, 0, 0, 0, 0, 0, 0, 1, 0, 0, 0, 0, 0, 0, 0, 0, 0, 0, 0, 0, 0, 0, 0, 0, 0, 0, 0, 0, 0, 0, 0, 0, 0, 0, 0, 0, 0, 0, 0], "bins": [-0.5, -0.484375, -0.46875, -0.453125, -0.4375, -0.421875, -0.40625, -0.390625, -0.375, -0.359375, -0.34375, -0.328125, -0.3125, -0.296875, -0.28125, -0.265625, -0.25, -0.234375, -0.21875, -0.203125, -0.1875, -0.171875, -0.15625, -0.140625, -0.125, -0.109375, -0.09375, -0.078125, -0.0625, -0.046875, -0.03125, -0.015625, 0.0, 0.015625, 0.03125, 0.046875, 0.0625, 0.078125, 0.09375, 0.109375, 0.125, 0.140625, 0.15625, 0.171875, 0.1875, 0.203125, 0.21875, 0.234375, 0.25, 0.265625, 0.28125, 0.296875, 0.3125, 0.328125, 0.34375, 0.359375, 0.375, 0.390625, 0.40625, 0.421875, 0.4375, 0.453125, 0.46875, 0.484375, 0.5]}, "parameters/dense_1.weights": {"_type": "histogram", "values": [1, 1, 0, 0, 0, 1, 1, 0, 0, 0, 0, 1, 0, 0, 0, 0, 0, 3, 2, 1, 3, 2, 1, 0, 1, 1, 3, 0, 0, 0, 1, 0, 0, 0, 1, 1, 0, 1, 1, 0, 0, 1, 0, 0, 0, 0, 1, 0, 1, 1, 0, 2, 1, 2, 1, 1, 0, 0, 0, 0, 2, 0, 0, 2], "bins": [-0.33968740701675415, -0.32895129919052124, -0.31821519136428833, -0.3074790835380554, -0.2967429757118225, -0.2860068678855896, -0.2752707600593567, -0.2645346522331238, -0.25379854440689087, -0.24306243658065796, -0.23232632875442505, -0.22159022092819214, -0.21085411310195923, -0.20011800527572632, -0.1893818974494934, -0.1786457896232605, -0.1679096817970276, -0.15717358887195587, -0.14643748104572296, -0.13570137321949005, -0.12496525794267654, -0.11422915011644363, -0.10349304229021072, -0.09275693446397781, -0.0820208340883255, -0.07128472626209259, -0.06054861471056938, -0.04981250688433647, -0.03907640278339386, -0.0283402930945158, -0.01760418713092804, -0.006868078839033842, 0.0038680285215377808, 0.014604136347770691, 0.0253402441740036, 0.03607635200023651, 0.04681245982646942, 0.05754856392741203, 0.06828467547893524, 0.07902078330516815, 0.08975689113140106, 0.10049299150705338, 0.11122909933328629, 0.1219652071595192, 0.1327013224363327, 0.1434374302625656, 0.15417353808879852, 0.16490964591503143, 0.17564573884010315, 0.18638184666633606, 0.19711795449256897, 0.20785406231880188, 0.2185901701450348, 0.2293262779712677, 0.2400623857975006, 0.2507984936237335, 0.26153460144996643, 0.27227070927619934, 0.28300681710243225, 0.29374292492866516, 0.30447903275489807, 0.315215140581131, 0.3259512484073639, 0.3366873562335968, 0.3474234640598297]}, "parameters/dense_1.bias": {"_type": "histogram", "values": [0, 0, 0, 0, 0, 0, 0, 0, 0, 0, 0, 0, 0, 0, 0, 0, 0, 0, 0, 0, 0, 0, 0, 0, 0, 0, 0, 0, 0, 0, 0, 0, 1, 0, 0, 0, 0, 0, 0, 0, 0, 0, 0, 0, 0, 0, 0, 0, 0, 0, 0, 0, 0, 0, 0, 0, 0, 0, 0, 0, 0, 0, 0, 0], "bins": [-0.4714619517326355, -0.4558369517326355, -0.4402119517326355, -0.4245869517326355, -0.4089619517326355, -0.3933369517326355, -0.3777119517326355, -0.3620869517326355, -0.3464619517326355, -0.3308369517326355, -0.3152119517326355, -0.2995869517326355, -0.2839619517326355, -0.2683369517326355, -0.2527119517326355, -0.2370869517326355, -0.2214619517326355, -0.2058369517326355, -0.1902119517326355, -0.1745869517326355, -0.1589619517326355, -0.1433369517326355, -0.1277119517326355, -0.1120869442820549, -0.0964619442820549, -0.0808369442820549, -0.0652119442820549, -0.0495869442820549, -0.0339619442820549, -0.01833694614470005, -0.0027119461447000504, 0.01291305385529995, 0.02853805385529995, 0.0441630557179451, 0.0597880557179451, 0.0754130557179451, 0.0910380557179451, 0.1066630557179451, 0.1222880557179451, 0.1379130482673645, 0.1535380482673645, 0.1691630482673645, 0.1847880482673645, 0.2004130482673645, 0.2160380482673645, 0.2316630482673645, 0.2472880482673645, 0.2629130482673645, 0.2785380482673645, 0.2941630482673645, 0.3097880482673645, 0.3254130482673645, 0.3410380482673645, 0.3566630482673645, 0.3722880482673645, 0.3879130482673645, 0.4035380482673645, 0.4191630482673645, 0.4347880482673645, 0.4504130482673645, 0.4660380482673645, 0.4816630482673645, 0.4972880482673645, 0.5129130482673645, 0.5285380482673645]}, "_timestamp": 1677257974.624729, "epoch": 99, "loss": 0.03484046459197998, "mae": 0.03484046459197998, "root_mean_squared_error": 0.047847308218479156, "val_loss": 0.018244922161102295, "val_mae": 0.018244922161102295, "val_root_mean_squared_error": 0.028639769181609154, "_runtime": 236.37916803359985, "_step": 100, "best_val_loss": 0.017706599086523056, "best_epoch": 94, "validation_predictions": {"_type": "table-file", "sha256": "14b7c621052ba837f296d0a215875e4dddb2df9484cd5ecdbfe7dce99573a345", "size": 18840, "artifact_path": "wandb-client-artifact://uug4ttsc5tavtf1htrvmnssft8w4dzwdp9p5i3nnklhjnbygcgtczphp8tj2rdim0b37zls5d3cq2seokenm0s0phgacr3mjq1srzchd38qrmqrit71lni2f7x3v47lo:latest/validation_predictions.table.json", "_latest_artifact_path": "wandb-client-artifact://uug4ttsc5tavtf1htrvmnssft8w4dzwdp9p5i3nnklhjnbygcgtczphp8tj2rdim0b37zls5d3cq2seokenm0s0phgacr3mjq1srzchd38qrmqrit71lni2f7x3v47lo:latest/validation_predictions.table.json", "path": "media/table/validation_predictions_100_14b7c621052ba837f296.table.json", "ncols": 5, "nrows": 327}, "_wandb": {"runtime": 235}}