{"graph": {"_type": "graph-file", "sha256": "496f68feff18170663b97f11288daa4cf25697229b4c20f045c7e064cbd62361", "size": 1798, "path": "media/graph/graph_summary_496f68feff18170663b9.graph.json"}, "parameters/conv1d.weights": {"_type": "histogram", "values": [2, 0, 0, 1, 1, 0, 0, 1, 1, 0, 0, 0, 0, 0, 3, 0, 0, 0, 0, 0, 0, 0, 0, 0, 1, 0, 0, 1, 1, 0, 3, 0, 1, 0, 1, 0, 0, 1, 0, 0, 0, 0, 1, 0, 0, 1, 0, 1, 3, 0, 0, 0, 3, 0, 0, 0, 1, 0, 0, 0, 2, 0, 0, 1], "bins": [-0.411376416683197, -0.3989155888557434, -0.3864547312259674, -0.3739939033985138, -0.3615330457687378, -0.3490722179412842, -0.3366113603115082, -0.32415053248405457, -0.31168967485427856, -0.29922884702682495, -0.28676798939704895, -0.27430716156959534, -0.26184630393981934, -0.24938547611236572, -0.23692463338375092, -0.2244637906551361, -0.2120029479265213, -0.1995421051979065, -0.1870812624692917, -0.17462041974067688, -0.16215957701206207, -0.14969873428344727, -0.13723789155483246, -0.12477705627679825, -0.11231621354818344, -0.09985537081956863, -0.08739452809095383, -0.07493368536233902, -0.06247284635901451, -0.050012003630399704, -0.037551164627075195, -0.025090321898460388, -0.012629479169845581, -0.00016863737255334854, 0.012292204424738884, 0.024753045290708542, 0.03721388801932335, 0.049674730747938156, 0.062135569751262665, 0.07459641247987747, 0.08705725520849228, 0.09951809793710709, 0.1119789406657219, 0.1244397833943367, 0.1369006186723709, 0.14936146140098572, 0.16182230412960052, 0.17428314685821533, 0.18674398958683014, 0.19920483231544495, 0.21166567504405975, 0.22412651777267456, 0.23658736050128937, 0.24904820322990417, 0.2615090310573578, 0.2739698886871338, 0.2864307165145874, 0.2988915741443634, 0.311352401971817, 0.323813259601593, 0.33627408742904663, 0.34873494505882263, 0.36119577288627625, 0.37365663051605225, 0.38611745834350586]}, "parameters/conv1d.bias": {"_type": "histogram", "values": [1, 1, 0, 0, 0, 0, 0, 0, 0, 0, 0, 0, 0, 0, 0, 0, 1, 0, 0, 0, 0, 0, 0, 0, 0, 0, 1, 0, 0, 1, 0, 2, 0, 0, 0, 0, 0, 0, 16, 0, 1, 0, 0, 0, 0, 0, 0, 2, 0, 0, 1, 0, 0, 0, 1, 1, 0, 1, 0, 0, 0, 0, 0, 1], "bins": [-0.03402611240744591, -0.03313439339399338, -0.03224267438054085, -0.03135095536708832, -0.030459236353635788, -0.029567517340183258, -0.028675798326730728, -0.027784079313278198, -0.02689236029982567, -0.02600063942372799, -0.02510892041027546, -0.02421720139682293, -0.0233254823833704, -0.02243376336991787, -0.02154204435646534, -0.02065032534301281, -0.01975860632956028, -0.01886688731610775, -0.01797516830265522, -0.01708344928920269, -0.01619173027575016, -0.015300010330975056, -0.014408291317522526, -0.013516572304069996, -0.012624853290617466, -0.011733134277164936, -0.010841415263712406, -0.009949696250259876, -0.009057976305484772, -0.008166257292032242, -0.007274538278579712, -0.006382819265127182, -0.005491100251674652, -0.004599381238222122, -0.0037076619919389486, -0.002815942745655775, -0.0019242237322032452, -0.0010325046023353934, -0.0001407854724675417, 0.00075093365740031, 0.0016426527872681618, 0.0025343718007206917, 0.0034260910470038652, 0.004317810293287039, 0.005209529306739569, 0.006101248320192099, 0.006992967799305916, 0.007884686812758446, 0.008776405826210976, 0.009668124839663506, 0.010559843853116035, 0.011451562866568565, 0.012343281880021095, 0.0132350018247962, 0.01412672083824873, 0.01501843985170126, 0.015910159796476364, 0.016801878809928894, 0.017693597823381424, 0.018585316836833954, 0.019477035850286484, 0.020368754863739014, 0.021260473877191544, 0.022152192890644073, 0.023043911904096603]}, "parameters/dense.weights": {"_type": "histogram", "values": [0, 0, 0, 0, 0, 0, 0, 0, 0, 0, 0, 0, 0, 0, 0, 0, 0, 0, 0, 0, 0, 0, 0, 0, 0, 0, 0, 0, 0, 0, 0, 0, 1, 0, 0, 0, 0, 0, 0, 0, 0, 0, 0, 0, 0, 0, 0, 0, 0, 0, 0, 0, 0, 0, 0, 0, 0, 0, 0, 0, 0, 0, 0, 0], "bins": [-1.843581199645996, -1.827956199645996, -1.812331199645996, -1.796706199645996, -1.781081199645996, -1.765456199645996, -1.749831199645996, -1.734206199645996, -1.718581199645996, -1.702956199645996, -1.687331199645996, -1.671706199645996, -1.656081199645996, -1.640456199645996, -1.624831199645996, -1.609206199645996, -1.593581199645996, -1.577956199645996, -1.562331199645996, -1.546706199645996, -1.531081199645996, -1.515456199645996, -1.499831199645996, -1.484206199645996, -1.468581199645996, -1.452956199645996, -1.437331199645996, -1.421706199645996, -1.406081199645996, -1.390456199645996, -1.374831199645996, -1.359206199645996, -1.343581199645996, -1.327956199645996, -1.312331199645996, -1.296706199645996, -1.281081199645996, -1.265456199645996, -1.249831199645996, -1.234206199645996, -1.218581199645996, -1.202956199645996, -1.187331199645996, -1.171706199645996, -1.156081199645996, -1.140456199645996, -1.124831199645996, -1.109206199645996, -1.093581199645996, -1.077956199645996, -1.062331199645996, -1.046706199645996, -1.031081199645996, -1.015456199645996, -0.9998311996459961, -0.9842061996459961, -0.9685811996459961, -0.9529561996459961, -0.9373311996459961, -0.9217061996459961, -0.9060811996459961, -0.8904561996459961, -0.8748311996459961, -0.8592061996459961, -0.8435811996459961]}, "parameters/dense.bias": {"_type": "histogram", "values": [0, 0, 0, 0, 0, 0, 0, 0, 0, 0, 0, 0, 0, 0, 0, 0, 0, 0, 0, 0, 0, 0, 0, 0, 0, 0, 0, 0, 0, 0, 0, 0, 1, 0, 0, 0, 0, 0, 0, 0, 0, 0, 0, 0, 0, 0, 0, 0, 0, 0, 0, 0, 0, 0, 0, 0, 0, 0, 0, 0, 0, 0, 0, 0], "bins": [-0.5, -0.484375, -0.46875, -0.453125, -0.4375, -0.421875, -0.40625, -0.390625, -0.375, -0.359375, -0.34375, -0.328125, -0.3125, -0.296875, -0.28125, -0.265625, -0.25, -0.234375, -0.21875, -0.203125, -0.1875, -0.171875, -0.15625, -0.140625, -0.125, -0.109375, -0.09375, -0.078125, -0.0625, -0.046875, -0.03125, -0.015625, 0.0, 0.015625, 0.03125, 0.046875, 0.0625, 0.078125, 0.09375, 0.109375, 0.125, 0.140625, 0.15625, 0.171875, 0.1875, 0.203125, 0.21875, 0.234375, 0.25, 0.265625, 0.28125, 0.296875, 0.3125, 0.328125, 0.34375, 0.359375, 0.375, 0.390625, 0.40625, 0.421875, 0.4375, 0.453125, 0.46875, 0.484375, 0.5]}, "parameters/dense_1.weights": {"_type": "histogram", "values": [2, 1, 0, 1, 0, 0, 0, 0, 0, 0, 0, 0, 1, 1, 0, 0, 2, 0, 1, 0, 0, 2, 0, 0, 0, 1, 0, 0, 0, 0, 0, 0, 0, 0, 1, 0, 0, 0, 1, 1, 0, 0, 0, 1, 0, 0, 1, 1, 1, 0, 0, 0, 0, 1, 0, 0, 0, 0, 1, 0, 0, 0, 0, 1], "bins": [-0.42292284965515137, -0.4094836115837097, -0.39604437351226807, -0.3826051354408264, -0.36916589736938477, -0.3557266592979431, -0.34228742122650146, -0.3288481831550598, -0.31540894508361816, -0.3019697070121765, -0.28853046894073486, -0.2750912308692932, -0.26165199279785156, -0.2482127547264099, -0.23477351665496826, -0.2213342785835266, -0.20789504051208496, -0.19445578753948212, -0.18101654946804047, -0.16757731139659882, -0.15413807332515717, -0.14069883525371552, -0.12725959718227386, -0.11382036656141281, -0.10038112103939056, -0.08694188296794891, -0.07350264489650726, -0.06006341055035591, -0.04662416875362396, -0.03318493068218231, -0.01974569261074066, -0.0063064550049602985, 0.007132783532142639, 0.02057202160358429, 0.03401125967502594, 0.04745049774646759, 0.06088973581790924, 0.07432897388935089, 0.08776821196079254, 0.10120745003223419, 0.11464668810367584, 0.1280859261751175, 0.14152516424655914, 0.1549644023180008, 0.16840364038944244, 0.1818428784608841, 0.19528211653232574, 0.2087213546037674, 0.22216060757637024, 0.2355998456478119, 0.24903908371925354, 0.2624783217906952, 0.27591755986213684, 0.2893567979335785, 0.30279603600502014, 0.3162352740764618, 0.32967451214790344, 0.3431137502193451, 0.35655298829078674, 0.3699922263622284, 0.38343146443367004, 0.3968707025051117, 0.41030994057655334, 0.423749178647995, 0.43718841671943665]}, "parameters/dense_1.bias": {"_type": "histogram", "values": [0, 0, 0, 0, 0, 0, 0, 0, 0, 0, 0, 0, 0, 0, 0, 0, 0, 0, 0, 0, 0, 0, 0, 0, 0, 0, 0, 0, 0, 0, 0, 0, 1, 0, 0, 0, 0, 0, 0, 0, 0, 0, 0, 0, 0, 0, 0, 0, 0, 0, 0, 0, 0, 0, 0, 0, 0, 0, 0, 0, 0, 0, 0, 0], "bins": [-0.4463875889778137, -0.4307625889778137, -0.4151375889778137, -0.3995125889778137, -0.3838875889778137, -0.3682625889778137, -0.3526375889778137, -0.3370125889778137, -0.3213875889778137, -0.3057625889778137, -0.2901375889778137, -0.2745125889778137, -0.2588875889778137, -0.24326260387897491, -0.22763760387897491, -0.21201260387897491, -0.19638760387897491, -0.18076260387897491, -0.16513760387897491, -0.14951260387897491, -0.13388760387897491, -0.11826260387897491, -0.10263760387897491, -0.08701260387897491, -0.07138760387897491, -0.055762600153684616, -0.040137600153684616, -0.024512600153684616, -0.008887600153684616, 0.006737399846315384, 0.022362399846315384, 0.037987399846315384, 0.053612399846315384, 0.06923739612102509, 0.08486239612102509, 0.10048739612102509, 0.11611239612102509, 0.13173739612102509, 0.14736239612102509, 0.16298739612102509, 0.17861239612102509, 0.19423739612102509, 0.20986239612102509, 0.22548739612102509, 0.24111239612102509, 0.2567374110221863, 0.2723624110221863, 0.2879874110221863, 0.3036124110221863, 0.3192374110221863, 0.3348624110221863, 0.3504874110221863, 0.3661124110221863, 0.3817374110221863, 0.3973624110221863, 0.4129874110221863, 0.4286124110221863, 0.4442374110221863, 0.4598624110221863, 0.4754874110221863, 0.4911124110221863, 0.5067374110221863, 0.5223624110221863, 0.5379874110221863, 0.5536124110221863]}, "_timestamp": 1681925680.874492, "epoch": 99, "loss": 0.05289725586771965, "mae": 0.05289725586771965, "root_mean_squared_error": 0.07545201480388641, "val_loss": 0.025964103639125824, "val_mae": 0.025964103639125824, "val_root_mean_squared_error": 0.03893342986702919, "_runtime": 216.03667783737183, "_step": 100, "best_val_loss": 0.01928139105439186, "best_epoch": 45, "validation_predictions": {"_type": "table-file", "sha256": "f8dfa2ac30228e1705b2125564a4b7d7289782bbcc872c1548d872674e851b55", "size": 18882, "artifact_path": "wandb-client-artifact://sh8t0yk7vxz0yfdulv8f9n79fu7m9muvoxly92xxaqyn56r6pwynocvaci17g5xb9jh092gd87p9wu8qf4ygarrfjj1rtdfpgec8i2khfrs1hpv74j1dyq1bq3e9l7um:latest/validation_predictions.table.json", "_latest_artifact_path": "wandb-client-artifact://sh8t0yk7vxz0yfdulv8f9n79fu7m9muvoxly92xxaqyn56r6pwynocvaci17g5xb9jh092gd87p9wu8qf4ygarrfjj1rtdfpgec8i2khfrs1hpv74j1dyq1bq3e9l7um:latest/validation_predictions.table.json", "path": "media/table/validation_predictions_100_f8dfa2ac30228e1705b2.table.json", "ncols": 5, "nrows": 327}, "_wandb": {"runtime": 215}}