{"graph": {"_type": "graph-file", "sha256": "918c7acee96efa0e299542b70f59d10afdb688301c39abb628a779a14640c91a", "size": 1940, "path": "media/graph/graph_summary_918c7acee96efa0e2995.graph.json"}, "parameters/conv1d.weights": {"_type": "histogram", "values": [2, 0, 8, 11, 12, 29, 32, 15, 15, 32, 20, 25, 21, 18, 26, 19, 29, 21, 20, 22, 17, 24, 25, 20, 26, 25, 26, 20, 16, 31, 18, 24, 20, 25, 21, 18, 16, 19, 19, 14, 32, 28, 24, 20, 30, 16, 28, 23, 24, 12, 22, 19, 19, 21, 28, 19, 27, 24, 23, 18, 18, 18, 4, 4], "bins": [-0.31937894225120544, -0.30965569615364075, -0.29993245005607605, -0.29020920395851135, -0.28048592805862427, -0.27076268196105957, -0.2610394358634949, -0.2513161897659302, -0.24159294366836548, -0.23186969757080078, -0.22214645147323608, -0.2124231904745102, -0.2026999443769455, -0.1929766982793808, -0.1832534372806549, -0.1735301911830902, -0.1638069450855255, -0.15408369898796082, -0.14436045289039612, -0.13463719189167023, -0.12491394579410553, -0.11519069969654083, -0.10546744614839554, -0.09574419260025024, -0.08602094650268555, -0.07629770040512085, -0.06657444685697556, -0.05685119703412056, -0.047127947211265564, -0.03740469738841057, -0.027681447565555573, -0.017958197742700577, -0.008234947919845581, 0.0014883019030094147, 0.01121155172586441, 0.020934801548719406, 0.030658051371574402, 0.0403813011944294, 0.05010455101728439, 0.05982780084013939, 0.06955105066299438, 0.07927429676055908, 0.08899755030870438, 0.09872080385684967, 0.10844404995441437, 0.11816729605197906, 0.12789055705070496, 0.13761380314826965, 0.14733704924583435, 0.15706029534339905, 0.16678354144096375, 0.17650680243968964, 0.18623004853725433, 0.19595329463481903, 0.20567655563354492, 0.21539980173110962, 0.22512304782867432, 0.234846293926239, 0.2445695400238037, 0.2542927861213684, 0.2640160322189331, 0.2737393081188202, 0.2834625542163849, 0.2931858003139496, 0.3029090464115143]}, "parameters/conv1d.bias": {"_type": "histogram", "values": [1, 0, 0, 0, 0, 0, 0, 0, 0, 0, 0, 0, 0, 0, 1, 0, 0, 0, 0, 0, 0, 0, 0, 0, 1, 1, 1, 0, 0, 0, 0, 1, 1, 0, 5, 2, 1, 0, 0, 4, 1, 1, 1, 0, 1, 1, 0, 1, 1, 1, 1, 0, 0, 0, 1, 0, 0, 1, 0, 0, 0, 0, 0, 1], "bins": [-0.025209948420524597, -0.024557584896683693, -0.02390522137284279, -0.023252857849001884, -0.02260049432516098, -0.021948130801320076, -0.021295767277479172, -0.020643403753638268, -0.019991040229797363, -0.01933867670595646, -0.018686313182115555, -0.0180339515209198, -0.017381587997078896, -0.01672922447323799, -0.016076860949397087, -0.015424496494233608, -0.014772133901715279, -0.014119770377874374, -0.01346740685403347, -0.012815043330192566, -0.012162679806351662, -0.011510316282510757, -0.010857952758669853, -0.010205589234828949, -0.009553225710988045, -0.00890086218714714, -0.008248498663306236, -0.007596135605126619, -0.006943772081285715, -0.006291408557444811, -0.005639045499265194, -0.00498668197542429, -0.0043343184515833855, -0.0036819549277424812, -0.0030295916367322206, -0.0023772281128913164, -0.001724864705465734, -0.0010725012980401516, -0.0004201378324069083, 0.0002322256041225046, 0.0008845890406519175, 0.0015369524480774999, 0.0021893158555030823, 0.0028416793793439865, 0.0034940429031848907, 0.004146406427025795, 0.004798769485205412, 0.005451133009046316, 0.00610349653288722, 0.006755860056728125, 0.007408223580569029, 0.008060586638748646, 0.00871295016258955, 0.009365313686430454, 0.010017677210271358, 0.010670040734112263, 0.011322404257953167, 0.011974767781794071, 0.012627131305634975, 0.013279493898153305, 0.01393185742199421, 0.014584220945835114, 0.015236584469676018, 0.015888947993516922, 0.016541311517357826]}, "parameters/dense.weights": {"_type": "histogram", "values": [0, 0, 0, 0, 0, 0, 0, 0, 0, 0, 0, 0, 0, 0, 0, 0, 0, 0, 0, 0, 0, 0, 0, 0, 0, 0, 0, 0, 0, 0, 0, 0, 1, 0, 0, 0, 0, 0, 0, 0, 0, 0, 0, 0, 0, 0, 0, 0, 0, 0, 0, 0, 0, 0, 0, 0, 0, 0, 0, 0, 0, 0, 0, 0], "bins": [-2.1656408309936523, -2.1500158309936523, -2.1343908309936523, -2.1187658309936523, -2.1031408309936523, -2.0875158309936523, -2.0718908309936523, -2.0562658309936523, -2.0406408309936523, -2.0250158309936523, -2.0093908309936523, -1.993765950202942, -1.978140950202942, -1.962515950202942, -1.946890950202942, -1.931265950202942, -1.915640950202942, -1.900015950202942, -1.884390950202942, -1.868765950202942, -1.853140950202942, -1.837515950202942, -1.821890950202942, -1.806265950202942, -1.790640950202942, -1.775015950202942, -1.759390950202942, -1.743765950202942, -1.728140950202942, -1.712515950202942, -1.696890950202942, -1.681265950202942, -1.665640950202942, -1.650015950202942, -1.634390950202942, -1.618765950202942, -1.603140950202942, -1.587515950202942, -1.571890950202942, -1.556265950202942, -1.540640950202942, -1.525015950202942, -1.509390950202942, -1.493765950202942, -1.478140950202942, -1.462515950202942, -1.446890950202942, -1.431265950202942, -1.415640950202942, -1.400015950202942, -1.384390950202942, -1.368765950202942, -1.353140950202942, -1.337515950202942, -1.321890950202942, -1.306265950202942, -1.290640950202942, -1.275015950202942, -1.259390950202942, -1.243765950202942, -1.228140950202942, -1.212515950202942, -1.196890950202942, -1.181265950202942, -1.165640950202942]}, "parameters/dense.bias": {"_type": "histogram", "values": [0, 0, 0, 0, 0, 0, 0, 0, 0, 0, 0, 0, 0, 0, 0, 0, 0, 0, 0, 0, 0, 0, 0, 0, 0, 0, 0, 0, 0, 0, 0, 0, 1, 0, 0, 0, 0, 0, 0, 0, 0, 0, 0, 0, 0, 0, 0, 0, 0, 0, 0, 0, 0, 0, 0, 0, 0, 0, 0, 0, 0, 0, 0, 0], "bins": [-0.5, -0.484375, -0.46875, -0.453125, -0.4375, -0.421875, -0.40625, -0.390625, -0.375, -0.359375, -0.34375, -0.328125, -0.3125, -0.296875, -0.28125, -0.265625, -0.25, -0.234375, -0.21875, -0.203125, -0.1875, -0.171875, -0.15625, -0.140625, -0.125, -0.109375, -0.09375, -0.078125, -0.0625, -0.046875, -0.03125, -0.015625, 0.0, 0.015625, 0.03125, 0.046875, 0.0625, 0.078125, 0.09375, 0.109375, 0.125, 0.140625, 0.15625, 0.171875, 0.1875, 0.203125, 0.21875, 0.234375, 0.25, 0.265625, 0.28125, 0.296875, 0.3125, 0.328125, 0.34375, 0.359375, 0.375, 0.390625, 0.40625, 0.421875, 0.4375, 0.453125, 0.46875, 0.484375, 0.5]}, "parameters/dense_1.weights": {"_type": "histogram", "values": [2, 1, 0, 2, 0, 0, 0, 2, 1, 0, 1, 0, 1, 0, 0, 0, 0, 1, 2, 0, 0, 0, 0, 0, 0, 0, 0, 1, 0, 0, 0, 0, 0, 0, 0, 0, 1, 0, 0, 1, 2, 0, 3, 2, 2, 0, 1, 2, 0, 0, 2, 1, 0, 0, 1, 3, 1, 2, 0, 0, 1, 1, 1, 1], "bins": [-0.3030925393104553, -0.29383930563926697, -0.284586101770401, -0.27533286809921265, -0.2660796642303467, -0.2568264305591583, -0.24757321178913116, -0.238319993019104, -0.22906677424907684, -0.21981355547904968, -0.21056033670902252, -0.20130711793899536, -0.192053884267807, -0.18280066549777985, -0.17354744672775269, -0.16429422795772552, -0.15504100918769836, -0.1457877904176712, -0.13653457164764404, -0.12728135287761688, -0.11802812665700912, -0.10877490788698196, -0.0995216816663742, -0.09026846289634705, -0.08101524412631989, -0.07176202535629272, -0.06250880658626556, -0.053255580365657806, -0.044002361595630646, -0.034749142825603485, -0.025495920330286026, -0.016242699697613716, -0.006989479064941406, 0.0022637415677309036, 0.011516962200403214, 0.020770182833075523, 0.030023403465747833, 0.039276622235774994, 0.04852984473109245, 0.05778306722640991, 0.06703628599643707, 0.07628950476646423, 0.0855427235364914, 0.09479594975709915, 0.10404916852712631, 0.11330238729715347, 0.12255561351776123, 0.1318088322877884, 0.14106205105781555, 0.1503152698278427, 0.15956848859786987, 0.16882170736789703, 0.1780749261379242, 0.18732815980911255, 0.1965813785791397, 0.20583459734916687, 0.21508781611919403, 0.2243410348892212, 0.23359425365924835, 0.2428474724292755, 0.25210070610046387, 0.26135390996932983, 0.2706071436405182, 0.27986034750938416, 0.2891135811805725]}, "parameters/dense_1.bias": {"_type": "histogram", "values": [0, 0, 0, 0, 0, 0, 0, 0, 0, 0, 0, 0, 0, 0, 0, 0, 0, 0, 0, 0, 0, 0, 0, 0, 0, 0, 0, 0, 0, 0, 0, 0, 1, 0, 0, 0, 0, 0, 0, 0, 0, 0, 0, 0, 0, 0, 0, 0, 0, 0, 0, 0, 0, 0, 0, 0, 0, 0, 0, 0, 0, 0, 0, 0], "bins": [-0.4508117139339447, -0.4351867139339447, -0.4195617139339447, -0.4039367139339447, -0.3883117139339447, -0.3726867139339447, -0.3570617139339447, -0.3414367139339447, -0.3258117139339447, -0.3101867139339447, -0.2945617139339447, -0.2789367139339447, -0.2633117139339447, -0.2476867139339447, -0.2320617139339447, -0.2164367139339447, -0.2008117139339447, -0.1851867139339447, -0.1695617139339447, -0.1539367139339447, -0.1383117139339447, -0.1226867139339447, -0.1070617139339447, -0.0914367139339447, -0.0758117139339447, -0.060186710208654404, -0.044561710208654404, -0.028936710208654404, -0.013311710208654404, 0.0023132897913455963, 0.017938289791345596, 0.033563289791345596, 0.049188289791345596, 0.0648132860660553, 0.0804382860660553, 0.0960632860660553, 0.1116882860660553, 0.1273132860660553, 0.1429382860660553, 0.1585632860660553, 0.1741882860660553, 0.1898132860660553, 0.2054382860660553, 0.2210632860660553, 0.2366882860660553, 0.2523132860660553, 0.2679382860660553, 0.2835632860660553, 0.2991882860660553, 0.3148132860660553, 0.3304382860660553, 0.3460632860660553, 0.3616882860660553, 0.3773132860660553, 0.3929382860660553, 0.4085632860660553, 0.4241882860660553, 0.4398132860660553, 0.4554382860660553, 0.4710632860660553, 0.4866882860660553, 0.5023133158683777, 0.5179383158683777, 0.5335633158683777, 0.5491883158683777]}, "_timestamp": 1680607156.9276042, "epoch": 99, "loss": 0.009565642103552818, "mae": 0.009565642103552818, "root_mean_squared_error": 0.022102832794189453, "val_loss": 0.0029882316011935472, "val_mae": 0.0029882316011935472, "val_root_mean_squared_error": 0.005123450420796871, "_runtime": 740.2672080993652, "_step": 100, "best_val_loss": 0.0024791003670543432, "best_epoch": 50, "validation_predictions": {"_type": "table-file", "sha256": "eb018943ae6db9bdea27fb0661adae190d6d56f4956896c1fc249733ea5ced65", "size": 176067, "artifact_path": "wandb-client-artifact://e0kuxccqm91orv7tvyqebs64lanahlfja267sr7feqmohrvb4tzpq74o1hlr2y3o246xl0zh8d9zrbh077s3n9bd8fq0lynqouzylidtek6sbbhrxy8qg834hnebe1j9:latest/validation_predictions.table.json", "_latest_artifact_path": "wandb-client-artifact://e0kuxccqm91orv7tvyqebs64lanahlfja267sr7feqmohrvb4tzpq74o1hlr2y3o246xl0zh8d9zrbh077s3n9bd8fq0lynqouzylidtek6sbbhrxy8qg834hnebe1j9:latest/validation_predictions.table.json", "path": "media/table/validation_predictions_100_eb018943ae6db9bdea27.table.json", "ncols": 5, "nrows": 2934}, "_wandb": {"runtime": 739}}