{"graph": {"_type": "graph-file", "sha256": "d6389321e945b591b9954cfc4b1b11c3cf00435eee6b1c0cbe3ce1493371d84d", "size": 1804, "path": "media/graph/graph_summary_d6389321e945b591b995.graph.json"}, "parameters/conv1d.weights": {"_type": "histogram", "values": [2, 0, 1, 0, 0, 1, 0, 1, 0, 0, 0, 0, 0, 0, 0, 0, 1, 0, 0, 0, 0, 0, 0, 0, 0, 1, 0, 0, 0, 0, 1, 0, 1, 0, 0, 0, 0, 0, 1, 0, 0, 2, 0, 1, 0, 0, 0, 0, 1, 0, 0, 1, 1, 0, 0, 0, 1, 0, 1, 0, 1, 0, 0, 1], "bins": [-0.4104759991168976, -0.3983667194843292, -0.38625746965408325, -0.3741481900215149, -0.36203891038894653, -0.34992966055870056, -0.3378203809261322, -0.32571110129356384, -0.31360185146331787, -0.3014925718307495, -0.28938329219818115, -0.2772740125656128, -0.2651647627353668, -0.25305548310279846, -0.2409462183713913, -0.22883693873882294, -0.21672767400741577, -0.2046184092760086, -0.19250912964344025, -0.18039986491203308, -0.16829058527946472, -0.15618132054805756, -0.1440720558166504, -0.13196277618408203, -0.11985351145267487, -0.1077442392706871, -0.09563496708869934, -0.08352570235729218, -0.07141643017530441, -0.05930715799331665, -0.047197889536619186, -0.03508862107992172, -0.02297934889793396, -0.010870078578591347, 0.0012391917407512665, 0.01334846206009388, 0.025457732379436493, 0.037567004561424255, 0.04967627301812172, 0.06178554147481918, 0.07389481365680695, 0.08600408583879471, 0.09811335802078247, 0.11022262275218964, 0.1223318949341774, 0.13444116711616516, 0.14655043184757233, 0.15865971148014069, 0.17076897621154785, 0.18287824094295502, 0.19498752057552338, 0.20709678530693054, 0.2192060649394989, 0.23131532967090607, 0.24342459440231323, 0.2555338740348816, 0.26764315366744995, 0.2797524034976959, 0.2918616831302643, 0.30397096276283264, 0.3160802125930786, 0.328189492225647, 0.34029877185821533, 0.3524080216884613, 0.36451730132102966]}, "parameters/conv1d.bias": {"_type": "histogram", "values": [1, 0, 0, 0, 0, 0, 0, 0, 0, 0, 3, 0, 0, 1, 0, 0, 1, 0, 0, 0, 0, 1, 0, 0, 2, 1, 1, 1, 1, 0, 0, 0, 0, 0, 0, 0, 0, 1, 0, 0, 0, 1, 0, 0, 0, 0, 1, 1, 0, 0, 0, 0, 0, 0, 0, 0, 0, 1, 0, 0, 0, 1, 0, 1], "bins": [-0.09412575513124466, -0.09108053892850876, -0.08803532272577286, -0.08499011397361755, -0.08194489777088165, -0.07889968156814575, -0.07585446536540985, -0.07280924916267395, -0.06976404041051865, -0.06671882420778275, -0.06367360800504684, -0.060628391802310944, -0.05758317932486534, -0.05453796312212944, -0.05149275064468384, -0.04844753444194794, -0.045402318239212036, -0.042357105761766434, -0.03931188955903053, -0.03626667708158493, -0.03322146087884903, -0.030176246538758278, -0.027131032198667526, -0.024085817858576775, -0.021040603518486023, -0.017995387315750122, -0.01495017297565937, -0.011904958635568619, -0.008859744295477867, -0.005814529024064541, -0.0027693144511431456, 0.00027590023819357157, 0.0033211149275302887, 0.006366329733282328, 0.009411544539034367, 0.012456758879125118, 0.015501974150538445, 0.018547188490629196, 0.021592402830719948, 0.0246376171708107, 0.0276828333735466, 0.030728047713637352, 0.033773262053728104, 0.036818478256464005, 0.03986369073390961, 0.04290890693664551, 0.04595411941409111, 0.04899933561682701, 0.052044548094272614, 0.055089764297008514, 0.058134980499744415, 0.06118019297719002, 0.06422540545463562, 0.06727062165737152, 0.07031583786010742, 0.07336105406284332, 0.07640627026557922, 0.07945147901773453, 0.08249669522047043, 0.08554191142320633, 0.08858712762594223, 0.09163234382867813, 0.09467755258083344, 0.09772276878356934, 0.10076798498630524]}, "parameters/dense.weights": {"_type": "histogram", "values": [0, 0, 0, 0, 0, 0, 0, 0, 0, 0, 0, 0, 0, 0, 0, 0, 0, 0, 0, 0, 0, 0, 0, 0, 0, 0, 0, 0, 0, 0, 0, 0, 1, 0, 0, 0, 0, 0, 0, 0, 0, 0, 0, 0, 0, 0, 0, 0, 0, 0, 0, 0, 0, 0, 0, 0, 0, 0, 0, 0, 0, 0, 0, 0], "bins": [0.04405653476715088, 0.05968153476715088, 0.07530653476715088, 0.09093153476715088, 0.10655653476715088, 0.12218153476715088, 0.13780653476715088, 0.15343153476715088, 0.16905653476715088, 0.18468153476715088, 0.20030653476715088, 0.21593153476715088, 0.23155653476715088, 0.24718153476715088, 0.2628065347671509, 0.2784315347671509, 0.2940565347671509, 0.3096815347671509, 0.3253065347671509, 0.3409315347671509, 0.3565565347671509, 0.3721815347671509, 0.3878065347671509, 0.4034315347671509, 0.4190565347671509, 0.4346815347671509, 0.4503065347671509, 0.4659315347671509, 0.4815565347671509, 0.4971815347671509, 0.5128065347671509, 0.5284315347671509, 0.5440565347671509, 0.5596815347671509, 0.5753065347671509, 0.5909315347671509, 0.6065565347671509, 0.6221815347671509, 0.6378065347671509, 0.6534315347671509, 0.6690565347671509, 0.6846815347671509, 0.7003065347671509, 0.7159315347671509, 0.7315565347671509, 0.7471815347671509, 0.7628065347671509, 0.7784315347671509, 0.7940565347671509, 0.8096815347671509, 0.8253065347671509, 0.8409315347671509, 0.8565565347671509, 0.8721815347671509, 0.8878065347671509, 0.9034315347671509, 0.9190565347671509, 0.9346815347671509, 0.9503065347671509, 0.9659315347671509, 0.9815565347671509, 0.9971815347671509, 1.0128065347671509, 1.0284315347671509, 1.0440565347671509]}, "parameters/dense.bias": {"_type": "histogram", "values": [0, 0, 0, 0, 0, 0, 0, 0, 0, 0, 0, 0, 0, 0, 0, 0, 0, 0, 0, 0, 0, 0, 0, 0, 0, 0, 0, 0, 0, 0, 0, 0, 1, 0, 0, 0, 0, 0, 0, 0, 0, 0, 0, 0, 0, 0, 0, 0, 0, 0, 0, 0, 0, 0, 0, 0, 0, 0, 0, 0, 0, 0, 0, 0], "bins": [-0.5, -0.484375, -0.46875, -0.453125, -0.4375, -0.421875, -0.40625, -0.390625, -0.375, -0.359375, -0.34375, -0.328125, -0.3125, -0.296875, -0.28125, -0.265625, -0.25, -0.234375, -0.21875, -0.203125, -0.1875, -0.171875, -0.15625, -0.140625, -0.125, -0.109375, -0.09375, -0.078125, -0.0625, -0.046875, -0.03125, -0.015625, 0.0, 0.015625, 0.03125, 0.046875, 0.0625, 0.078125, 0.09375, 0.109375, 0.125, 0.140625, 0.15625, 0.171875, 0.1875, 0.203125, 0.21875, 0.234375, 0.25, 0.265625, 0.28125, 0.296875, 0.3125, 0.328125, 0.34375, 0.359375, 0.375, 0.390625, 0.40625, 0.421875, 0.4375, 0.453125, 0.46875, 0.484375, 0.5]}, "parameters/dense_1.weights": {"_type": "histogram", "values": [1, 0, 1, 1, 0, 0, 2, 0, 4, 1, 0, 0, 1, 1, 0, 0, 2, 0, 1, 0, 2, 0, 0, 0, 1, 1, 1, 0, 0, 0, 0, 0, 0, 0, 0, 0, 0, 0, 1, 1, 0, 2, 1, 2, 1, 1, 1, 2, 0, 1, 0, 1, 0, 1, 2, 0, 2, 0, 0, 0, 0, 0, 0, 1], "bins": [-0.38503819704055786, -0.3733019232749939, -0.3615656793117523, -0.34982940554618835, -0.3380931615829468, -0.3263568878173828, -0.31462061405181885, -0.30288437008857727, -0.2911480963230133, -0.27941185235977173, -0.26767557859420776, -0.2559393048286438, -0.24420304596424103, -0.23246678709983826, -0.22073052823543549, -0.20899426937103271, -0.19725799560546875, -0.18552173674106598, -0.1737854778766632, -0.16204921901226044, -0.15031296014785767, -0.1385766863822937, -0.12684042751789093, -0.11510416865348816, -0.10336790978908539, -0.09163164347410202, -0.07989538460969925, -0.06815911829471588, -0.05642285943031311, -0.04468659684062004, -0.03295033425092697, -0.021214071661233902, -0.009477809071540833, 0.0022584530524909496, 0.013994715176522732, 0.025730976834893227, 0.037467241287231445, 0.049203500151634216, 0.060939762741327286, 0.07267602533102036, 0.08441229164600372, 0.0961485505104065, 0.10788480937480927, 0.11962107568979263, 0.131357342004776, 0.14309360086917877, 0.15482985973358154, 0.16656611859798431, 0.17830237746238708, 0.19003865122795105, 0.20177491009235382, 0.2135111689567566, 0.22524742782115936, 0.23698370158672333, 0.2487199604511261, 0.26045623421669006, 0.27219247817993164, 0.2839287519454956, 0.2956649959087372, 0.30740126967430115, 0.3191375434398651, 0.3308737874031067, 0.34261006116867065, 0.35434630513191223, 0.3660825788974762]}, "parameters/dense_1.bias": {"_type": "histogram", "values": [0, 0, 0, 0, 0, 0, 0, 0, 0, 0, 0, 0, 0, 0, 0, 0, 0, 0, 0, 0, 0, 0, 0, 0, 0, 0, 0, 0, 0, 0, 0, 0, 1, 0, 0, 0, 0, 0, 0, 0, 0, 0, 0, 0, 0, 0, 0, 0, 0, 0, 0, 0, 0, 0, 0, 0, 0, 0, 0, 0, 0, 0, 0, 0], "bins": [-0.3820244073867798, -0.3663994073867798, -0.3507744073867798, -0.3351494073867798, -0.3195244073867798, -0.3038994073867798, -0.2882744073867798, -0.2726494073867798, -0.2570244073867798, -0.2413993924856186, -0.2257743924856186, -0.2101493924856186, -0.1945243924856186, -0.1788993924856186, -0.1632743924856186, -0.1476493924856186, -0.1320243924856186, -0.11639939248561859, -0.10077439248561859, -0.08514939248561859, -0.06952439248561859, -0.05389939248561859, -0.03827439248561859, -0.02264939248561859, -0.007024392485618591, 0.008600607514381409, 0.02422560751438141, 0.03985060751438141, 0.05547560751438141, 0.07110060751438141, 0.08672560751438141, 0.10235060751438141, 0.11797560751438141, 0.1336006075143814, 0.1492256075143814, 0.1648506075143814, 0.1804756075143814, 0.1961006075143814, 0.2117256075143814, 0.2273506075143814, 0.2429756075143814, 0.2586005926132202, 0.2742255926132202, 0.2898505926132202, 0.3054755926132202, 0.3211005926132202, 0.3367255926132202, 0.3523505926132202, 0.3679755926132202, 0.3836005926132202, 0.3992255926132202, 0.4148505926132202, 0.4304755926132202, 0.4461005926132202, 0.4617255926132202, 0.4773505926132202, 0.4929755926132202, 0.5086005926132202, 0.5242255926132202, 0.5398505926132202, 0.5554755926132202, 0.5711005926132202, 0.5867255926132202, 0.6023505926132202, 0.6179755926132202]}, "_timestamp": 1671230684.561534, "epoch": 499, "loss": 0.014881940558552742, "mae": 0.014881940558552742, "root_mean_squared_error": 0.026436351239681244, "val_loss": 0.004576509818434715, "val_mae": 0.004576509818434715, "val_root_mean_squared_error": 0.007780549582093954, "_runtime": 967.6851918697357, "_step": 500, "best_val_loss": 0.004039410036057234, "best_epoch": 62, "validation_predictions": {"_type": "table-file", "sha256": "caa0a397d434666d89850cd3718426be7b8da027399b4dd298b41e1843ce2566", "size": 87723, "artifact_path": "wandb-client-artifact://6sdbmx9m8i6393nxb0gd6loy0738ib3xr9m0rsoeqpbf2u704higjpswh1wqzrfpkd8pnzbpaflcpf2us5f994loucmrs6xx8t1n00bsm6utfgl5ymyql095s3sdgm8i:latest/validation_predictions.table.json", "_latest_artifact_path": "wandb-client-artifact://6sdbmx9m8i6393nxb0gd6loy0738ib3xr9m0rsoeqpbf2u704higjpswh1wqzrfpkd8pnzbpaflcpf2us5f994loucmrs6xx8t1n00bsm6utfgl5ymyql095s3sdgm8i:latest/validation_predictions.table.json", "path": "media/table/validation_predictions_500_caa0a397d434666d8985.table.json", "ncols": 5, "nrows": 1488}, "_wandb": {"runtime": 967}}