{"graph": {"_type": "graph-file", "sha256": "495f4d5e00c77886ffa9b3b65e9a6b954fe591117323e801f2a9073bf66acff1", "size": 1939, "path": "media/graph/graph_summary_495f4d5e00c77886ffa9.graph.json"}, "parameters/conv1d.weights": {"_type": "histogram", "values": [3, 5, 8, 19, 26, 14, 7, 12, 14, 21, 12, 17, 13, 14, 14, 18, 17, 9, 19, 8, 9, 26, 9, 6, 21, 16, 17, 20, 10, 17, 16, 7, 18, 17, 14, 12, 16, 18, 10, 16, 17, 10, 19, 12, 10, 14, 15, 15, 17, 12, 19, 17, 22, 17, 14, 20, 10, 9, 15, 12, 9, 7, 2, 3], "bins": [-0.3216263949871063, -0.3114739656448364, -0.30132153630256653, -0.29116907715797424, -0.28101664781570435, -0.27086421847343445, -0.26071178913116455, -0.25055935978889465, -0.24040691554546356, -0.23025448620319366, -0.22010204195976257, -0.20994961261749268, -0.19979718327522278, -0.1896447390317917, -0.1794923096895218, -0.1693398654460907, -0.1591874361038208, -0.1490350067615509, -0.1388825625181198, -0.12873013317584991, -0.11857769638299942, -0.10842525959014893, -0.09827283024787903, -0.08812039345502853, -0.07796795666217804, -0.06781551986932755, -0.05766308680176735, -0.04751065373420715, -0.03735821694135666, -0.027205782011151314, -0.01705334708094597, -0.0069009121507406235, 0.0032515227794647217, 0.013403957709670067, 0.023556392639875412, 0.03370882570743561, 0.0438612625002861, 0.0540136992931366, 0.0641661286354065, 0.07431856542825699, 0.08447100222110748, 0.09462343901395798, 0.10477587580680847, 0.11492830514907837, 0.12508073449134827, 0.13523317873477936, 0.14538560807704926, 0.15553805232048035, 0.16569048166275024, 0.17584291100502014, 0.18599535524845123, 0.19614778459072113, 0.20630022883415222, 0.21645265817642212, 0.22660508751869202, 0.2367575317621231, 0.246909961104393, 0.2570624053478241, 0.267214834690094, 0.2773672640323639, 0.2875196933746338, 0.2976721227169037, 0.30782458186149597, 0.31797701120376587, 0.32812944054603577]}, "parameters/conv1d.bias": {"_type": "histogram", "values": [1, 0, 0, 0, 0, 0, 0, 0, 0, 0, 1, 0, 0, 0, 1, 0, 1, 0, 0, 0, 0, 0, 0, 0, 0, 0, 1, 0, 0, 1, 0, 0, 0, 0, 0, 1, 2, 1, 0, 1, 1, 2, 1, 0, 1, 0, 1, 0, 1, 1, 0, 0, 0, 0, 0, 0, 1, 0, 0, 0, 0, 0, 0, 1], "bins": [-0.014842531643807888, -0.014431585557758808, -0.014020639471709728, -0.013609692454338074, -0.013198746368288994, -0.012787800282239914, -0.012376854196190834, -0.011965908110141754, -0.011554962024092674, -0.01114401500672102, -0.01073306892067194, -0.01032212283462286, -0.00991117674857378, -0.0095002306625247, -0.009089283645153046, -0.008678337559103966, -0.008267391473054886, -0.007856445387005806, -0.007445498835295439, -0.007034552749246359, -0.006623606197535992, -0.006212660111486912, -0.005801714025437832, -0.005390767473727465, -0.004979821387678385, -0.004568875301629305, -0.004157928749918938, -0.003746982663869858, -0.0033360363449901342, -0.0029250900261104107, -0.002514143940061331, -0.0021031976211816072, -0.0016922513023018837, -0.0012813049834221601, -0.0008703587809577584, -0.0004594125202856958, -4.8466259613633156e-05, 0.0003624800010584295, 0.0007734262617304921, 0.0011843724641948938, 0.0015953187830746174, 0.002006265101954341, 0.0024172114208340645, 0.0028281575068831444, 0.003239103825762868, 0.0036500501446425915, 0.004060996230691671, 0.004471942782402039, 0.0048828888684511185, 0.005293834954500198, 0.005704781506210566, 0.0061157275922596455, 0.006526674143970013, 0.0069376202300190926, 0.0073485663160681725, 0.00775951286777854, 0.008170459419488907, 0.008581405505537987, 0.008992351591587067, 0.009403297677636147, 0.009814243763685226, 0.010225189849734306, 0.01063613686710596, 0.01104708295315504, 0.01145802903920412]}, "parameters/dense.weights": {"_type": "histogram", "values": [0, 0, 0, 0, 0, 0, 0, 0, 0, 0, 0, 0, 0, 0, 0, 0, 0, 0, 0, 0, 0, 0, 0, 0, 0, 0, 0, 0, 0, 0, 0, 0, 1, 0, 0, 0, 0, 0, 0, 0, 0, 0, 0, 0, 0, 0, 0, 0, 0, 0, 0, 0, 0, 0, 0, 0, 0, 0, 0, 0, 0, 0, 0, 0], "bins": [-1.1965044736862183, -1.1808794736862183, -1.1652544736862183, -1.1496294736862183, -1.1340044736862183, -1.1183794736862183, -1.1027544736862183, -1.0871294736862183, -1.0715044736862183, -1.0558794736862183, -1.0402544736862183, -1.0246294736862183, -1.0090044736862183, -0.9933794736862183, -0.9777544736862183, -0.9621294736862183, -0.9465044736862183, -0.9308794736862183, -0.9152544736862183, -0.8996294736862183, -0.8840044736862183, -0.8683794736862183, -0.8527544736862183, -0.8371294736862183, -0.8215044736862183, -0.8058794736862183, -0.7902544736862183, -0.7746294736862183, -0.7590044736862183, -0.7433794736862183, -0.7277544736862183, -0.7121294736862183, -0.6965044736862183, -0.6808794736862183, -0.6652544736862183, -0.6496294736862183, -0.6340044736862183, -0.6183794736862183, -0.6027544736862183, -0.5871294736862183, -0.5715044736862183, -0.5558794736862183, -0.5402544736862183, -0.5246294736862183, -0.5090044736862183, -0.49337947368621826, -0.47775447368621826, -0.46212947368621826, -0.44650447368621826, -0.43087947368621826, -0.41525447368621826, -0.39962947368621826, -0.38400447368621826, -0.36837947368621826, -0.35275447368621826, -0.33712947368621826, -0.32150447368621826, -0.30587947368621826, -0.29025447368621826, -0.27462947368621826, -0.25900447368621826, -0.24337947368621826, -0.22775447368621826, -0.21212947368621826, -0.19650447368621826]}, "parameters/dense.bias": {"_type": "histogram", "values": [0, 0, 0, 0, 0, 0, 0, 0, 0, 0, 0, 0, 0, 0, 0, 0, 0, 0, 0, 0, 0, 0, 0, 0, 0, 0, 0, 0, 0, 0, 0, 0, 1, 0, 0, 0, 0, 0, 0, 0, 0, 0, 0, 0, 0, 0, 0, 0, 0, 0, 0, 0, 0, 0, 0, 0, 0, 0, 0, 0, 0, 0, 0, 0], "bins": [-0.5, -0.484375, -0.46875, -0.453125, -0.4375, -0.421875, -0.40625, -0.390625, -0.375, -0.359375, -0.34375, -0.328125, -0.3125, -0.296875, -0.28125, -0.265625, -0.25, -0.234375, -0.21875, -0.203125, -0.1875, -0.171875, -0.15625, -0.140625, -0.125, -0.109375, -0.09375, -0.078125, -0.0625, -0.046875, -0.03125, -0.015625, 0.0, 0.015625, 0.03125, 0.046875, 0.0625, 0.078125, 0.09375, 0.109375, 0.125, 0.140625, 0.15625, 0.171875, 0.1875, 0.203125, 0.21875, 0.234375, 0.25, 0.265625, 0.28125, 0.296875, 0.3125, 0.328125, 0.34375, 0.359375, 0.375, 0.390625, 0.40625, 0.421875, 0.4375, 0.453125, 0.46875, 0.484375, 0.5]}, "parameters/dense_1.weights": {"_type": "histogram", "values": [1, 0, 0, 0, 1, 1, 0, 1, 1, 1, 1, 0, 0, 0, 1, 1, 1, 1, 1, 1, 0, 1, 1, 0, 1, 0, 2, 0, 0, 0, 0, 0, 1, 1, 1, 0, 0, 0, 1, 4, 1, 0, 1, 0, 0, 0, 1, 0, 1, 0, 0, 0, 1, 0, 2, 1, 1, 3, 1, 1, 0, 0, 1, 1], "bins": [-0.35366103053092957, -0.3424901068210602, -0.3313191831111908, -0.3201482594013214, -0.308977335691452, -0.29780641198158264, -0.28663548827171326, -0.2754645347595215, -0.2642936110496521, -0.2531226873397827, -0.24195176362991333, -0.23078083992004395, -0.21960991621017456, -0.20843899250030518, -0.1972680687904358, -0.1860971450805664, -0.17492622137069702, -0.16375528275966644, -0.15258435904979706, -0.14141343533992767, -0.1302425116300583, -0.1190715804696083, -0.10790065675973892, -0.09672973304986954, -0.08555880188941956, -0.07438787817955017, -0.06321695446968079, -0.0520460270345211, -0.04087509959936142, -0.029704175889492035, -0.01853324845433235, -0.007362323347479105, 0.0038086026906967163, 0.01497952826321125, 0.026150453835725784, 0.03732138127088547, 0.04849230498075485, 0.059663232415914536, 0.07083415985107422, 0.0820050835609436, 0.09317600727081299, 0.10434693843126297, 0.11551786214113235, 0.12668879330158234, 0.13785971701145172, 0.1490306407213211, 0.1602015644311905, 0.17137248814105988, 0.18254342675209045, 0.19371435046195984, 0.20488527417182922, 0.2160561978816986, 0.227227121591568, 0.23839804530143738, 0.24956896901130676, 0.26073989272117615, 0.27191081643104553, 0.2830817401409149, 0.2942526936531067, 0.3054236173629761, 0.31659454107284546, 0.32776546478271484, 0.33893638849258423, 0.3501073122024536, 0.361278235912323]}, "parameters/dense_1.bias": {"_type": "histogram", "values": [0, 0, 0, 0, 0, 0, 0, 0, 0, 0, 0, 0, 0, 0, 0, 0, 0, 0, 0, 0, 0, 0, 0, 0, 0, 0, 0, 0, 0, 0, 0, 0, 1, 0, 0, 0, 0, 0, 0, 0, 0, 0, 0, 0, 0, 0, 0, 0, 0, 0, 0, 0, 0, 0, 0, 0, 0, 0, 0, 0, 0, 0, 0, 0], "bins": [-0.43692445755004883, -0.42129945755004883, -0.40567445755004883, -0.39004945755004883, -0.37442445755004883, -0.35879945755004883, -0.34317445755004883, -0.32754945755004883, -0.31192445755004883, -0.29629945755004883, -0.28067445755004883, -0.26504945755004883, -0.24942444264888763, -0.23379944264888763, -0.21817444264888763, -0.20254944264888763, -0.18692444264888763, -0.17129944264888763, -0.15567444264888763, -0.14004944264888763, -0.12442444264888763, -0.10879944264888763, -0.09317444264888763, -0.07754944264888763, -0.061924442648887634, -0.046299442648887634, -0.030674442648887634, -0.015049442648887634, 0.0005755573511123657, 0.016200557351112366, 0.031825557351112366, 0.047450557351112366, 0.06307555735111237, 0.07870055735111237, 0.09432555735111237, 0.10995055735111237, 0.12557555735111237, 0.14120055735111237, 0.15682555735111237, 0.17245055735111237, 0.18807555735111237, 0.20370055735111237, 0.21932555735111237, 0.23495055735111237, 0.25057554244995117, 0.26620054244995117, 0.28182554244995117, 0.29745054244995117, 0.31307554244995117, 0.32870054244995117, 0.34432554244995117, 0.35995054244995117, 0.37557554244995117, 0.39120054244995117, 0.40682554244995117, 0.42245054244995117, 0.43807554244995117, 0.45370054244995117, 0.46932554244995117, 0.48495054244995117, 0.5005755424499512, 0.5162005424499512, 0.5318255424499512, 0.5474505424499512, 0.5630755424499512]}, "_timestamp": 1679482587.309403, "epoch": 99, "loss": 0.039413440972566605, "mae": 0.039413440972566605, "root_mean_squared_error": 0.05877567455172539, "val_loss": 0.019939446821808815, "val_mae": 0.019939446821808815, "val_root_mean_squared_error": 0.03089049458503723, "_runtime": 460.4931118488312, "_step": 100, "best_val_loss": 0.017521588131785393, "best_epoch": 85, "validation_predictions": {"_type": "table-file", "sha256": "7f600c1570fdd54e528d6022f05a967aff92a102b0a27da25e39931b5a46b8e3", "size": 18828, "artifact_path": "wandb-client-artifact://hydz8frvqugjdhtlwqxhrvwmqjkfy0vz71hgjnqxbfkuenooa0dy8ca8d1zlx95juydz7qafjphx62pzc21yl0kvchup8u2woxbtfyw4psns69xzoiuje7u5gtr16qo9:latest/validation_predictions.table.json", "_latest_artifact_path": "wandb-client-artifact://hydz8frvqugjdhtlwqxhrvwmqjkfy0vz71hgjnqxbfkuenooa0dy8ca8d1zlx95juydz7qafjphx62pzc21yl0kvchup8u2woxbtfyw4psns69xzoiuje7u5gtr16qo9:latest/validation_predictions.table.json", "path": "media/table/validation_predictions_100_7f600c1570fdd54e528d.table.json", "ncols": 5, "nrows": 327}, "_wandb": {"runtime": 458}}