{"graph": {"_type": "graph-file", "sha256": "1ed4cc5244dcf2a1f269e7734c684dbb8608dc1c7d2ed00a1dcd612b9af66230", "size": 2420, "path": "media/graph/graph_summary_1ed4cc5244dcf2a1f269.graph.json"}, "parameters/conv1d.weights": {"_type": "histogram", "values": [1, 0, 0, 0, 1, 1, 0, 0, 1, 1, 0, 1, 1, 0, 1, 0, 0, 0, 0, 0, 1, 1, 0, 1, 0, 0, 0, 0, 0, 0, 0, 0, 0, 0, 1, 0, 0, 1, 0, 0, 1, 0, 0, 0, 1, 0, 0, 1, 0, 1, 0, 0, 0, 0, 1, 0, 0, 0, 0, 0, 0, 0, 1, 2], "bins": [-0.47857752442359924, -0.46523019671440125, -0.45188289880752563, -0.43853557109832764, -0.42518824338912964, -0.41184094548225403, -0.39849361777305603, -0.38514629006385803, -0.3717989921569824, -0.3584516644477844, -0.3451043367385864, -0.3317570388317108, -0.3184097111225128, -0.3050623834133148, -0.2917150855064392, -0.2783677577972412, -0.2650204300880432, -0.2516731321811676, -0.2383258044719696, -0.2249784767627716, -0.2116311639547348, -0.198283851146698, -0.1849365234375, -0.1715892106294632, -0.1582418978214264, -0.1448945701122284, -0.1315472573041916, -0.11819993704557419, -0.10485262423753738, -0.09150530397891998, -0.07815798372030258, -0.06481067091226578, -0.051463350653648376, -0.038116034120321274, -0.024768713861703873, -0.01142139732837677, 0.0019259210675954819, 0.015273239463567734, 0.028620555996894836, 0.04196787625551224, 0.05531519278883934, 0.06866250932216644, 0.08200982958078384, 0.09535714983940125, 0.10870446264743805, 0.12205178290605545, 0.13539910316467285, 0.14874641597270966, 0.16209372878074646, 0.17544105648994446, 0.18878836929798126, 0.20213569700717926, 0.21548300981521606, 0.22883032262325287, 0.24217765033245087, 0.25552496314048767, 0.26887229084968567, 0.2822195887565613, 0.2955669164657593, 0.3089142441749573, 0.3222615420818329, 0.3356088697910309, 0.3489561975002289, 0.3623034954071045, 0.3756508231163025]}, "parameters/conv1d.bias": {"_type": "histogram", "values": [1, 0, 0, 0, 0, 0, 0, 1, 0, 0, 0, 0, 0, 0, 1, 0, 0, 1, 0, 1, 0, 0, 0, 0, 0, 1, 0, 2, 0, 0, 0, 0, 1, 1, 0, 1, 0, 0, 0, 0, 0, 2, 1, 1, 0, 0, 0, 0, 0, 1, 0, 1, 0, 0, 1, 0, 0, 1, 1, 0, 0, 0, 0, 1], "bins": [-0.22287818789482117, -0.21652400493621826, -0.21016982197761536, -0.20381562411785126, -0.19746144115924835, -0.19110725820064545, -0.18475307524204254, -0.17839889228343964, -0.17204469442367554, -0.16569051146507263, -0.15933632850646973, -0.15298214554786682, -0.14662796258926392, -0.140273779630661, -0.1339195817708969, -0.127565398812294, -0.1212112158536911, -0.1148570328950882, -0.1085028424859047, -0.10214865952730179, -0.09579446911811829, -0.08944028615951538, -0.08308610320091248, -0.07673191279172897, -0.07037772983312607, -0.06402354687452316, -0.05766935646533966, -0.051315173506736755, -0.04496098682284355, -0.03860680013895035, -0.03225261718034744, -0.02589843049645424, -0.019544243812561035, -0.013190058059990406, -0.006835872307419777, -0.0004816865548491478, 0.005872499197721481, 0.01222668495029211, 0.01858087070286274, 0.024935055524110794, 0.031289242208004, 0.0376434288918972, 0.043997615575790405, 0.05035179853439331, 0.056705985218286514, 0.06306017190217972, 0.06941435486078262, 0.07576854526996613, 0.08212272822856903, 0.08847691118717194, 0.09483110159635544, 0.10118528455495834, 0.10753947496414185, 0.11389365792274475, 0.12024784088134766, 0.12660202383995056, 0.13295620679855347, 0.13931040465831757, 0.14566458761692047, 0.15201877057552338, 0.15837295353412628, 0.1647271364927292, 0.1710813343524933, 0.1774355173110962, 0.1837897002696991]}, "parameters/dense.weights": {"_type": "histogram", "values": [0, 0, 0, 0, 0, 0, 0, 0, 0, 0, 0, 0, 0, 0, 0, 0, 0, 0, 0, 0, 0, 0, 0, 0, 0, 0, 0, 0, 0, 0, 0, 0, 1, 0, 0, 0, 0, 0, 0, 0, 0, 0, 0, 0, 0, 0, 0, 0, 0, 0, 0, 0, 0, 0, 0, 0, 0, 0, 0, 0, 0, 0, 0, 0], "bins": [-0.3004722595214844, -0.2848472595214844, -0.2692222595214844, -0.2535972595214844, -0.23797225952148438, -0.22234725952148438, -0.20672225952148438, -0.19109725952148438, -0.17547225952148438, -0.15984725952148438, -0.14422225952148438, -0.12859725952148438, -0.11297225952148438, -0.09734725952148438, -0.08172225952148438, -0.06609725952148438, -0.050472259521484375, -0.034847259521484375, -0.019222259521484375, -0.003597259521484375, 0.012027740478515625, 0.027652740478515625, 0.043277740478515625, 0.058902740478515625, 0.07452774047851562, 0.09015274047851562, 0.10577774047851562, 0.12140274047851562, 0.13702774047851562, 0.15265274047851562, 0.16827774047851562, 0.18390274047851562, 0.19952774047851562, 0.21515274047851562, 0.23077774047851562, 0.24640274047851562, 0.2620277404785156, 0.2776527404785156, 0.2932777404785156, 0.3089027404785156, 0.3245277404785156, 0.3401527404785156, 0.3557777404785156, 0.3714027404785156, 0.3870277404785156, 0.4026527404785156, 0.4182777404785156, 0.4339027404785156, 0.4495277404785156, 0.4651527404785156, 0.4807777404785156, 0.4964027404785156, 0.5120277404785156, 0.5276527404785156, 0.5432777404785156, 0.5589027404785156, 0.5745277404785156, 0.5901527404785156, 0.6057777404785156, 0.6214027404785156, 0.6370277404785156, 0.6526527404785156, 0.6682777404785156, 0.6839027404785156, 0.6995277404785156]}, "parameters/dense.bias": {"_type": "histogram", "values": [0, 0, 0, 0, 0, 0, 0, 0, 0, 0, 0, 0, 0, 0, 0, 0, 0, 0, 0, 0, 0, 0, 0, 0, 0, 0, 0, 0, 0, 0, 0, 0, 1, 0, 0, 0, 0, 0, 0, 0, 0, 0, 0, 0, 0, 0, 0, 0, 0, 0, 0, 0, 0, 0, 0, 0, 0, 0, 0, 0, 0, 0, 0, 0], "bins": [-0.5, -0.484375, -0.46875, -0.453125, -0.4375, -0.421875, -0.40625, -0.390625, -0.375, -0.359375, -0.34375, -0.328125, -0.3125, -0.296875, -0.28125, -0.265625, -0.25, -0.234375, -0.21875, -0.203125, -0.1875, -0.171875, -0.15625, -0.140625, -0.125, -0.109375, -0.09375, -0.078125, -0.0625, -0.046875, -0.03125, -0.015625, 0.0, 0.015625, 0.03125, 0.046875, 0.0625, 0.078125, 0.09375, 0.109375, 0.125, 0.140625, 0.15625, 0.171875, 0.1875, 0.203125, 0.21875, 0.234375, 0.25, 0.265625, 0.28125, 0.296875, 0.3125, 0.328125, 0.34375, 0.359375, 0.375, 0.390625, 0.40625, 0.421875, 0.4375, 0.453125, 0.46875, 0.484375, 0.5]}, "parameters/dense_1.weights": {"_type": "histogram", "values": [1, 0, 1, 1, 0, 0, 0, 0, 0, 0, 1, 0, 1, 2, 0, 1, 0, 0, 2, 0, 0, 2, 0, 0, 0, 0, 2, 4, 2, 0, 0, 0, 0, 0, 5, 1, 1, 2, 1, 0, 1, 4, 0, 0, 0, 0, 0, 0, 1, 0, 1, 0, 0, 1, 0, 1, 0, 1, 0, 0, 0, 0, 1, 1], "bins": [-0.20835013687610626, -0.2016090750694275, -0.1948680281639099, -0.18812696635723114, -0.18138591945171356, -0.1746448576450348, -0.1679038107395172, -0.16116274893283844, -0.15442168712615967, -0.1476806402206421, -0.14093957841396332, -0.13419853150844574, -0.12745746970176697, -0.12071641534566879, -0.11397536098957062, -0.10723430663347244, -0.10049325227737427, -0.0937521904706955, -0.08701113611459732, -0.08027008175849915, -0.07352902740240097, -0.0667879730463028, -0.06004691496491432, -0.05330586060881615, -0.04656480252742767, -0.0398237481713295, -0.03308269381523132, -0.026341637596488, -0.019600581377744675, -0.0128595270216465, -0.006118471268564463, 0.0006225842516869307, 0.007363639771938324, 0.014104695059359074, 0.020845750346779823, 0.027586806565523148, 0.03432786092162132, 0.041068919003009796, 0.04780997335910797, 0.054551027715206146, 0.06129208207130432, 0.0680331364274025, 0.07477419823408127, 0.08151525259017944, 0.08825630694627762, 0.0949973613023758, 0.10173841565847397, 0.10847947001457214, 0.11522053182125092, 0.12196158617734909, 0.12870264053344727, 0.13544368743896484, 0.14218474924564362, 0.1489258110523224, 0.15566685795783997, 0.16240791976451874, 0.16914896667003632, 0.1758900284767151, 0.18263109028339386, 0.18937213718891144, 0.1961131989955902, 0.2028542459011078, 0.20959530770778656, 0.21633635461330414, 0.2230774164199829]}, "parameters/dense_1.bias": {"_type": "histogram", "values": [0, 0, 0, 0, 0, 0, 0, 0, 0, 0, 0, 0, 0, 0, 0, 0, 0, 0, 0, 0, 0, 0, 0, 0, 0, 0, 0, 0, 0, 0, 0, 0, 1, 0, 0, 0, 0, 0, 0, 0, 0, 0, 0, 0, 0, 0, 0, 0, 0, 0, 0, 0, 0, 0, 0, 0, 0, 0, 0, 0, 0, 0, 0, 0], "bins": [-0.2594202756881714, -0.2437952756881714, -0.2281702756881714, -0.2125452756881714, -0.1969202756881714, -0.1812952756881714, -0.1656702756881714, -0.1500452756881714, -0.1344202756881714, -0.11879527568817139, -0.10317027568817139, -0.08754527568817139, -0.07192027568817139, -0.05629527568817139, -0.04067027568817139, -0.025045275688171387, -0.009420275688171387, 0.006204724311828613, 0.021829724311828613, 0.03745472431182861, 0.05307972431182861, 0.06870472431182861, 0.08432972431182861, 0.09995472431182861, 0.11557972431182861, 0.1312047243118286, 0.1468297243118286, 0.1624547243118286, 0.1780797243118286, 0.1937047243118286, 0.2093297243118286, 0.2249547243118286, 0.2405797243118286, 0.2562047243118286, 0.2718297243118286, 0.2874547243118286, 0.3030797243118286, 0.3187047243118286, 0.3343297243118286, 0.3499547243118286, 0.3655797243118286, 0.3812047243118286, 0.3968297243118286, 0.4124547243118286, 0.4280797243118286, 0.4437047243118286, 0.4593297243118286, 0.4749547243118286, 0.4905797243118286, 0.5062047243118286, 0.5218297243118286, 0.5374547243118286, 0.5530797243118286, 0.5687047243118286, 0.5843297243118286, 0.5999547243118286, 0.6155797243118286, 0.6312047243118286, 0.6468297243118286, 0.6624547243118286, 0.6780797243118286, 0.6937047243118286, 0.7093297243118286, 0.7249547243118286, 0.7405797243118286]}, "_timestamp": 1675689205.652636, "epoch": 99, "loss": 0.025459082797169685, "mae": 0.025459082797169685, "root_mean_squared_error": 0.03720775246620178, "val_loss": 0.008819501847028732, "val_mae": 0.008819501847028732, "val_root_mean_squared_error": 0.012634078972041607, "_runtime": 600.6267521381378, "_step": 100, "best_val_loss": 0.007062504068017006, "best_epoch": 94, "validation_predictions": {"_type": "table-file", "sha256": "fdcb6481f422f8bd5982242dd8dc202541c2ccf3d5cb0b6f2c56bc5ab5a1aea3", "size": 172161, "artifact_path": "wandb-client-artifact://169j8chdzbr8i869n5mawireeo2wiz9d73hqsbtyb9soox74u5gcp54ulfd6ddwpd2o2b65sesm18fyhbwtbw8v1bz5irwo09xknd1jbzfnuvncdib00g5iswt3ymetd:latest/validation_predictions.table.json", "_latest_artifact_path": "wandb-client-artifact://169j8chdzbr8i869n5mawireeo2wiz9d73hqsbtyb9soox74u5gcp54ulfd6ddwpd2o2b65sesm18fyhbwtbw8v1bz5irwo09xknd1jbzfnuvncdib00g5iswt3ymetd:latest/validation_predictions.table.json", "path": "media/table/validation_predictions_100_fdcb6481f422f8bd5982.table.json", "ncols": 5, "nrows": 2933}, "_wandb": {"runtime": 744}}